[{"outputs":[-0.6666666666666666,0,-0.5,-0.8333333333333334,0,-0.6666666666666666,-1,0,0,0,0,0,-0.5,-0.16666666666666666,-0.16666666666666666,-0.16666666666666666,-0.16666666666666666,0,-0.3333333333333333,0,-0.16666666666666666,-0.3333333333333333,0,0,0,-0.16666666666666666,0,0,0,0,0,0,0,0,0.5,0.16666666666666666,0,0.5,0,0,0.16666666666666666,0,0.3333333333333333,0,0,0.3333333333333333,0,0,0,0.16666666666666666,0,0,0,0.16666666666666666,0.16666666666666666,0.16666666666666666,0.6666666666666666,0,0,0.8333333333333334,0,0.6666666666666666,1,0],"sums":[0,0,0,0,0,0,0,0,0,0,0,0,0,0,0,0,0,0,0,0,0,0,0,0,0,0,0,0,0,0,0,0,0,0,0,0,0,0,0,0,0,0,0,0,0,0,0,0,0,0,0,0,0,0,0,0,0,0,0,0,0,0,0,0],"a":{"arg":"x","body":"return 1/(1 + Math.exp(-x));"},"da":{"arg":"x","body":"return Math.exp(-x)/Math.pow(1 + Math.exp(-x), 2);"}},{"outputs":[0.6624658010386723,0.08992189335482312,0.9992130918732787,0.3733764204459723,0.22136228217579532,0.058794545062881405,0.3595525929099094,0.059640741750883644,0.3825080283071232,0.25068977930279895,0.3629312454557078,0.39636347128368155,0.11094038971420092,0.19304195929009113,0.15267032904660338,0.38898678299980466,0.08145083434265751,0.3376163244971676,0.18676097731533078,0.06893198787914269,0.9975685961685956,0.3707400545194166,0.5017186464896198,0.15166452116019122,0.08529123657355511,0.05262715882051602,0.9932097231042268,0.07024011508009619,0.13842925269624567,0.14164756315279356,0.0908113399998766,0.5845925852781977,0.07809323058649248,0.9999621140217442,0.24974085957162936,0.3906765447194244,0.13682289484457905,0.10093219616305128,0.2816895543685702,0.9992396515856997,0.17329414849769112,0.09888996345140155,0.07843228321656684,0.29767520320449786,0.9980441107018254,0.1444864272205632,0.12073665850513775,0.4329470750796932,0.9984141840887144,0.1503474337994793,0.2905055628555134,0.6358920850365356,0.19325327566730632,0.3061886824173655,0.1659381714233572,0.19281985928686363,0.5374483547797485,0.9907482392499124,0.12356636034928707,0.0888820635725118,0.07542233080241774,0.09181103067393634,0.10574267627614879,0.14783716423426604,0.12998159748294025,0.3138618312002294,0.07947656300469551,0.10020284001933115,0.09383972012721764,0.08476409442867577,0.9999768341818414,0.1166060239273622,0.08290574389310058,0.28360284769813093,0.08542824401096973,0.1302204040837987,0.08921049913824569,0.9957121145089741,0.9785121187164578,0.520948679748346,0.9997187691556659,0.12507520778911196,0.08905318994387812,0.2313684005596794,0.05516372701630058,0.9972521066930546,0.22750966554423677,0.16624181820791925,0.3075096908599074,0.19630606759954858,0.1558640806338405,0.9954425929417594,0.3165522210134773,0.20079318643222918,0.8596544161284779,0.4064274195600735,0.4168369844531643,0.4727977250109242,0.3917616299610192,0.9990830281123881,0.1429398650584402,0.1055040257656683,0.2501269479731626,0.3560980451245193,0.33963103861729216,0.21407823065461815,0.09198834109725046,0.2778847772115012,0.15098426414876137,0.08866836231427808,0.08002044051133582,0.9989236296972386,0.06757542473680511,0.16696789124231667,0.4212940779925886,0.16063722789554133,0.1803379191659603,0.28417893299557045,0.12273661781748398,0.25078424132616295,0.13040053827820164,0.2507864847364655,0.46402955463299606,0.09210693782860686,0.44664603333469816,0.2095613098588185,0.20629964125824926,0.9592817607446135],"sums":[0.6743021000194545,-2.314588985389845,7.146611837060483,-0.5177589278908311,-1.2577452319185163,-2.7731123730005574,-0.5773065446294169,-2.757923064918167,-0.47891642502597787,-1.0949368419079142,-0.5626641748009277,-0.420640596089402,-2.0811712589973186,-1.430364101830681,-1.7138089562831285,-0.4515732245122153,-2.4227958528155025,-0.6739348421910283,-1.4711954640897964,-2.6032119917888106,6.016852115548317,-0.5290432838268685,0.006874613033043431,-1.7216051854113283,-2.3725340105880997,-2.8904604095116513,4.985450122583838,-2.5830067768432308,-1.8283977894068464,-1.80167275787284,-2.303768451721802,0.3416554083083646,-2.4685407238113295,10.180891594501329,-1.0999948488758968,-0.4444692857010959,-1.8419325392106078,-2.186909486742386,-0.9360962576310291,7.180973152240746,-1.5624585193873455,-2.2096196255929708,-2.4638406414746914,-0.858393000547515,6.234952500448966,-1.7785163846528662,-1.9854726471026551,-0.2698371493041616,6.445069158926336,-1.731878679167492,-0.8929299306870219,0.5575785779496004,-1.4290081328618445,-0.8179985257254456,-1.6146922769243428,-1.4317904845805776,0.15007445519528756,4.673646570109246,-1.9590826483645194,-2.3273619845146065,-2.5062336637562366,-2.291720022691401,-2.1349850074439596,-1.7516662039650714,-1.9011214811315902,-0.7821261586469601,-2.449480288281939,-2.1949728283682672,-2.2676279778539796,-2.379309813965773,10.672809554888566,-2.0249703443465896,-2.4035059076901524,-0.9266598593110487,-2.3707791572350954,-1.8990114106363367,-2.323313070739519,5.447664455252664,3.8185440567669553,0.08384380146758713,8.17605344540231,-1.9452227122155703,-2.3252506781929907,-1.2006005424864392,-2.8407060383656293,5.894169055390614,-1.2224267732650125,-1.6124999458875853,-0.8117876422004947,-1.4095435049732516,-1.6893291740550795,5.38643362106619,-0.769662027607336,-1.3813442976517463,1.8124226295756727,-0.3787541354267727,-0.3357715414735284,-0.10891664406495707,-0.4399132931209223,6.993516350526062,-1.7910840675147022,-2.137511291257783,-1.0979353473671556,-0.5923403699444407,-0.6649388633800044,-1.3005157453545142,-2.2895953769054542,-0.9549781571978931,-1.7269021002618932,-2.3300037242152456,-2.4420693434197793,6.8330837788947365,-2.6245438862543176,-1.6072706614307466,-0.3174633294449589,-1.6534944195856025,-1.5140597391685007,-0.9238261437856834,-1.9667665281287792,-1.0944340311931948,-1.897421939427284,-1.0944220913046965,-0.14413077478238684,-2.2881763290015353,-0.21423147195834058,-1.327571750273292,-1.3473763269399999,3.1595087075378174],"a":{"arg":"x","body":"return 1/(1 + Math.exp(-x));"},"da":{"arg":"x","body":"return Math.exp(-x)/Math.pow(1 + Math.exp(-x), 2);"},"bias":[0.06923162848164716,-0.10828531329482437,0.017116211967809825,-0.0006366343749357739,-0.07924782467610036,-0.1526159857101752,-0.07968576044733924,0.001333356732244717,-0.15352606732023766,0.07859062658703231,-0.013630731671926993,-0.12432873681683071,-0.1220569891008319,0.02504041520505096,0.09563372743546361,-0.0895229870529824,-0.09522334447411769,-0.15054305308741683,-0.061795365122174845,-0.11347441671801982,-0.03359887291578181,0.11686337056949592,0.13651424130658835,-0.14506755706283797,-0.11300388413040396,-0.17382137467928596,-0.08429716005704657,-0.07710688811058111,-0.11810225496258263,-0.17961376178915744,-0.016642934750373317,-0.16479341096064104,0.06114888316936423,-0.13954632544655104,0.14461778895338367,0.10143919758167375,-0.11437867624126437,-0.03758526034956605,0.07966764009464711,-0.16626703061371817,-0.07128902392851125,0.1170282029624537,-0.09481188601879086,0.11033988818384588,-0.12026187471202353,0.13980591512006074,-0.11322595627760253,-0.19827047508074244,-0.15005637226303659,0.07105806684852867,-0.03514192670573388,0.03480895685136379,0.10351072829391111,0.11247493587909413,0.04001648808643843,0.07006980890626996,0.062216790872318406,-0.05156798805275484,-0.035023281498078596,-0.050027258776527445,0.0038934079639546815,0.12603228825516988,-0.12551311797791004,0.0008403453490393176,-0.1277876786610716,-0.09970628811521527,-0.18674583199242153,0.1990272392966203,-0.00443265625042813,-0.12569359260227958,0.12069576360955114,-0.08976438298118046,-0.11174422575604065,0.08382590550926611,-0.14726999366785476,0.17605043475958215,0.1406847977180921,-0.163662048033643,-0.07703872582342229,0.12232315513199615,-0.06068102265549377,-0.1608545052514293,-0.1819866289610694,-0.05047333041936594,0.059194836116826965,-0.1069239150569457,0.00898337610043018,0.10108682897193655,0.04404202012923619,0.12425383667685902,0.0866686976764332,-0.09743833011267809,-0.08496781593853547,0.01978548046106479,0.06374494917585044,0.021053050364490566,-0.04476096645988825,-0.09941642114922003,0.12342443555767346,0.1255257237494945,0.04755552474128172,-0.11271264354636133,0.017323449006797276,-0.07457217976884509,-0.18536403954814312,0.04296440510857824,0.010646395267625841,-0.13608947988341927,0.03600334102801367,0.18084699992377667,-0.19947864615268315,0.023450542206426755,0.16366779421056998,-0.08497514974837586,-0.1309392310123596,0.05955737892309931,-0.13006227848011323,-0.09910615828778369,0.05306022057713067,-0.11087670672361788,-0.1937703756890084,0.17547959704966437,0.10545608069600959,0.17001773721521335,0.131690154762386,-0.04802934058230496,-0.10574242821266325,-0.1139467666318252],"weights":[[0.3570952041611644,-0.4578246950727278,0.4108248849941959,0.6402159021200337,0.994648559849599,0.426742067745303,-1.1781945833867975,0.7620909838722238,0.5884743912512889,2.6605606297182796,-2.0379901342206934,-3.1959138455283838,-2.9283943502202177,-0.04323554786823823,0.09372688778393222,0.005715584280997643,-0.5187384469800718,-0.15707923483098674,0.47618638890744136,-0.06412082117887002,2.259638310988328,0.8649787530862727,0.1745745834970207,0.0958079533041209,0.19098719700487993,-2.3392995723581334,0.48412550563175566,2.6847904488830983,0.1164523930659333,0.010187922010067574,0.13332838340659964,-0.19354783807932785,0.19925757330379934,0.06112415046345837,3.8017454488419173,3.9230607722344972,-0.01536120469172858,-1.622709241930564,-0.04227057356751454,0.17669783926306737,-0.007720179825784959,-0.10966936410267758,1.9607741042479732,-0.13149718700895577,3.1236342681499427,1.4699119886916263,-0.06271734189820483,0.0038625954096072057,0.006909033472490101,-0.1711247402929705,-3.834537866862017,-0.023945601525138555,-2.5120634877318886,-0.08149055009518223,0.08580940976838099,-0.28573870971230825,-0.31402108951684843,-1.9324091825030172,1.4534725239544004,-0.41295151539133196,-0.48942871289758044,-1.5168720367191042,-1.6646389492501912,-0.478737473697368],[0.45148711634323085,-0.14111108683989332,0.308019277486525,0.5375064359714402,0.3532355928353134,0.16416439237671618,-0.2894334324473597,0.04608210075142824,0.10195780640513206,-0.06759913799495396,-0.9474604679082296,-1.172422544125659,0.06706675771472204,0.16255068336369385,-0.04185407537122591,0.055206431487543735,0.050363364239313826,-0.0121749625556907,0.3979767716544923,-0.16289864068665746,0.5127327940569325,0.2858317535798046,0.020319133895168318,-0.1515738526783375,0.056877513699021054,0.2605504008201709,0.7528437736493162,1.0436667409539986,0.1739215895426119,0.06672943886912625,-0.024574151534082045,-0.199995982320889,0.192979602030741,-0.008613656372066986,0.6225374736915296,0.5462015316141796,0.10634653464481314,0.1476773132593428,-0.11860596627625944,0.18970374101955578,0.14790753852962618,-0.1566182672260358,0.10961856486818229,0.15571717299051707,1.1693546393917367,0.728407173407358,0.07864762320645535,-0.08592219737080492,0.0460660608797963,-0.0334515072805338,-0.7234790771207988,-0.03775538165328446,-0.5305668341227681,-0.14445846427832512,-0.2185093098120164,-0.20053846435873743,-0.10332211211868095,-0.2551017787008498,-0.1676604170100571,-0.3877651998736963,-0.38457077754062124,-0.7873584957865575,-0.8190263981128305,-0.11609124769498659],[-0.8856909585054596,-0.4761793776045313,-0.7476917189295528,-1.0195558271603489,-1.148034888330218,-0.6011565204881169,-0.5963912210019661,-0.657529801929851,-0.20253821016077292,-0.18662710449172348,-0.12891306720668316,-4.453827024409963,-3.521366251973533,-0.15406521769788298,-0.3486012238031949,-0.08443856715392944,0.07360498517252002,0.05231045513960808,-0.14133371468376837,0.1635400953113318,3.0352819202549606,0.08045650897785342,-0.09883051467908413,-0.057037653680620165,-0.024758307304762722,0.16440104498004326,0.022288767461829468,4.206004558954887,-0.1369670045349891,0.07999371470484834,-0.1880792856913085,-0.13754195265438451,-0.14515342836632117,-0.14163115929993123,0.20579562505805876,0.07795982704543218,-0.09811200897403083,0.15341292758643252,-0.16479605112594592,-0.16065077227690638,-0.09266317756189532,-0.15994056804407794,0.1552633821944017,-0.18774553519846926,0.4083072726354645,-0.22964135581543288,-0.13183386280160053,0.15776326322621909,0.2697702548260268,0.4049808860973769,0.2421741311343253,0.18825432583848406,-0.1844267835686436,0.048699261405056087,0.35145937679929573,0.20250068291841675,0.7284593767747987,0.602580934970269,0.5002540617224454,1.1772575481817273,1.1145489680492024,0.6857171921742173,0.7409852343833038,0.822318078963591],[0.025407011808092524,-1.7128014414303336,0.18215325438134822,0.1212207526720507,-0.29907653291287656,0.4759206187263408,-0.6173788972728611,-0.2347814931002166,-0.5749464879875101,-0.29764489479601675,-2.2285146845806487,-2.3685410951013703,-1.4171589697295326,-0.08033698638947094,-0.0256507353325321,-0.15064983165484688,0.7063660085046886,0.14264875865559867,1.373323526068471,-0.08470825955487538,1.6833470176076273,1.0857521177048342,0.1513903264918119,0.14482814359090002,-0.1983462327149578,0.42723803471433547,1.8169269803741692,3.04481368195051,-0.11900484362804607,0.07047175583600379,-0.19040579483019196,-0.14044832292795695,0.15261109986648141,-0.09704916713469434,0.76014860796077,0.9056529675716314,0.18261653005239398,0.09776505993171629,-0.16168340876142884,0.050770369571207064,0.7007607476994674,-0.08971121979888581,0.4908551334199072,0.1287743429920713,1.5047834644491052,1.2644123691319442,0.18661856871193816,0.13180780895447042,-0.8035133730552746,-0.16499973063295428,-1.078924384433998,0.15294371661335876,-0.9416598144554182,-0.01136337247980704,-0.16130264314076584,-0.16032278887324405,0.07518296056896287,-0.19978350456906385,-0.02505897499332166,-0.20732599711402244,-0.06516934919664175,-0.2636855159253288,-0.9707010320354343,0.140965629856396],[0.19765969222019544,-0.8745154834579033,-0.06333771599373363,0.13517889873007605,-0.07606713415007381,0.07842468112204751,-0.667043828164791,0.16046961887606767,-0.2770133817277675,-0.30622068627190613,-1.8549165169667965,-2.0361198365203967,-0.9166191556113459,0.05399905546478021,-0.0033121797545524784,-0.07492690199520952,0.33921631233151717,0.07962500803074413,0.8867641980763709,-0.031664041367307494,0.9196684853888503,0.9592047839134976,-0.06736079260731104,-0.06819444949142506,0.021045753122570676,0.1691564172459025,1.0802365977348052,2.3856160268465465,-0.07585247695654954,-0.09993186870956068,0.13436556288909413,-0.09075166212308812,-0.19693343959255333,0.042693429642727126,0.4085558543441034,1.1301718590329035,-0.1786473947822791,0.1131918330569645,-0.10406002393319058,0.15463808758311848,0.25107730973485815,0.1950473039257185,0.2592923846245308,-0.19683650263039576,0.9457105420728139,0.7564359651408675,-0.10993522307454927,-0.010654431342984966,-0.39535954756153,-0.03751801322631792,-0.8460055250294432,0.10067994640937183,-0.11940370368381145,0.0011119857102897784,-0.10924760712668691,-0.030175350553792918,-0.06598087054523866,-0.19210721142002254,-0.3489681524756587,-0.23938643955895247,0.05871767801567145,-0.7345819632787614,-1.2566805499654323,-0.015395778309374997],[0.4476406439461116,-0.18246411847229124,0.35523058630480947,0.5728750335190675,0.676561792453497,0.2452995105844126,0.01033547286342938,0.31125196239700553,0.26054656065632426,-0.000885818835645254,-0.4682355849397143,-0.8919283968977882,-0.014113900840079283,-0.06505466342992816,0.07740755125511226,-0.02729391866285847,0.05760906477898076,0.1763499966598378,0.21079330712903677,0.18506773453371567,0.35378145782395154,0.48050639000462597,-0.10533033338839443,0.02217503528095177,-0.1782209206488437,0.12235744864553955,0.31627996053881924,0.8934075328943439,0.10110205159056973,0.025171944963972404,-0.1655770011248107,0.07048469366889565,-0.012171833995141684,0.16825680169087687,2.2407538964427096,-0.01045760303271118,-0.0291182801006033,0.01380884478676533,0.18295207131232216,0.10126461149689264,0.01426289343611019,0.109324652377145,0.35841651579283645,-0.13948127951687317,2.2980431727234496,1.3966414351323069,0.18353426497309916,0.1061538391471128,-0.20503340410131837,-0.18088994232459382,-2.260100867093112,0.05608811722675455,-2.390751873715609,-0.01011598384153329,0.04233116543969378,-0.17985160547897322,-0.5282315829397879,-0.5117146214520933,-0.5620629503086437,-0.4974202164002713,-0.8253163955598579,-0.45633959721551487,-1.7706284261476846,-0.2850570941109292],[-0.048002059819829905,-1.2949062485394867,-0.1351422992285249,0.13317724798567326,-0.5210855778036051,-0.14687200060274624,-0.47159032819136865,-0.19760327833539515,-0.5866674416168571,-0.8744464135786945,-2.050556516212046,-2.340761311967077,-1.3394387651922028,-0.12328160535220031,-0.058432973307559276,-0.06819398069127738,0.602951982114459,0.08058599177834369,1.2951809648432373,0.026055824869936656,1.6787127415304068,0.7299304467992914,0.1361512464794653,0.08029970676227166,-0.04188310884896343,0.9231666014034591,1.3796354273760205,2.772430589926056,-0.021224939682812666,-0.021962845913924056,-0.1575120073749278,0.13631053694335427,-0.16580094000384824,-0.09027567115623186,0.1415434620861477,0.9265133665430824,-0.09571767206288317,0.5389064866539147,0.1545706531844508,0.14330435795636964,0.5289486052807929,0.11966906710178238,0.46482352087128015,-0.08327052271391278,1.1469185903817503,1.1709219212199609,-0.008962312757934493,-0.10161757671872503,-0.37144521065111136,0.1913616156206854,-0.6905787961406459,0.048994298421874916,-0.48510763351291225,-0.1551179547949539,0.07058138221555785,-0.1437371750390186,-0.0961928442400844,-0.539658148059293,-0.26118672183446423,0.15782433482300134,0.2758135479859996,-0.5184108857037907,-1.4015952674751293,0.22236304506151158],[0.5083627751962857,-0.07342143252538032,0.22672983930454765,0.4675335792123039,0.5207444855195641,0.18473737073831914,0.3063202877690672,0.22086918826224505,-0.09431558142100337,-0.09308851616251639,-0.05930570372751697,0.19389439225650487,0.31470967355777857,0.005906435150246692,0.2829266112612964,0.2334113740561117,-0.03294826949255206,-0.17393772652389697,0.19233877838697877,0.19323333529892067,0.1099603183122608,0.1457013877328883,-0.16089534054248827,-0.041011996266641315,0.034550340776173444,-0.11546789266550418,0.06860658538888106,0.03784008119298161,-0.11949274360574123,-0.16140650352816488,0.11279643869119121,0.03559321951667105,-0.1912992139276164,-0.08084300278130173,0.16334106415445446,-0.03240554875395931,-0.15910902653394807,-0.05478037396139886,-0.19030596168546882,-0.00111965082595758,0.11677712767120255,-0.02385052788596917,0.16056475441300053,0.13491007854885995,0.5181246694413798,0.23329336755261654,-0.15164643089805196,-0.1075740163970143,-0.03787795189036884,-0.07003278258493878,-0.35629439140626035,0.1652688454320816,-0.4581748857848334,-0.23435023174150335,-0.07014476024270433,-0.0713536108891511,-0.3444696239374929,-0.1816906875367742,-0.24544435568061862,-0.37266339940730797,-0.4478451095168641,-0.38658829296418795,-0.4646167865609404,-0.271843365274736],[-0.07058712212998097,-3.3464487758118997,-0.016210469858165943,0.07629727361460599,-0.7162051693885709,0.4060092581978524,-0.858911765276875,-0.5664382524870306,-1.5562006392570478,-0.7798669942829641,-4.203500022977365,-4.857239798778843,-4.369597967515843,0.121374137111134,-0.17106494410324757,0.19647736446451836,1.6540400933785704,0.05760109019755033,3.136466156275192,-0.08407959261331754,4.465130795152939,1.7523746039423738,-0.1810097440691436,0.041269603935996824,0.17116634146829812,0.7780196883576148,2.7659226835834407,5.716850114052971,0.03745224181800752,-0.14644390457773043,-0.03714273563440865,-0.1521134921214885,-0.0922961483734449,-0.08239861356746242,2.7860551692709796,2.7477224124986006,0.19838925318455314,0.325502019148919,0.1508137727054969,-0.19492711788222108,1.389442817479512,-0.08279766115395902,1.697670433394514,-0.12614925088704,2.2838455142465377,2.4486102909686926,0.008266634624088637,-0.09298417268304418,-1.5632781106469709,-0.21931936796171247,-3.106411428330597,0.1770929225863167,-1.2045493152646134,-0.12581023602672947,0.03980379141685514,0.12006931607632108,-0.09723227699853146,-1.4946631821039977,-0.45121140697597034,-0.22437782802139186,0.29306205191121076,-1.5897456836348776,-2.5712908746174845,0.2526236694535362],[0.11966408045658686,-0.4552550006796444,0.021272992784601853,0.37277789422943947,-0.20783531485893936,0.47978923382079863,0.01950081405580058,-0.14983712591250734,-0.7621295157855155,-0.49976664172637725,-0.7929697029884487,-2.0043310011098474,-1.4658800045386167,-0.03619185229348406,0.07408431551938659,0.10621124134489608,0.5796227834220683,-0.13573858783880013,0.15984721390378728,-0.01803657559850294,1.0403384577737058,0.4633791888473,-0.16434778894288435,0.04951750965357188,0.1710894264133726,0.6619094457978657,-0.45034519189530287,2.3611667853132547,-0.04936224640079728,-0.006201206538470949,-0.05164219169497128,0.16279868915319579,-0.04612313090423187,0.19681975884284547,1.2515721635749033,1.6071485009165336,0.10100624859715607,-0.18760382166511444,-0.17530876045580923,-0.06553099258828202,0.5988764470938668,0.07511993503326986,1.1349946380919316,0.11346008427401788,2.45483965201099,1.158988213848209,0.050431143495703434,0.13846047457469307,-0.5209846722696019,0.11247391340211225,-2.078263073739143,-0.04223712616807768,-0.19602454316210047,0.040969444566972414,0.10214916711033432,-0.13808608315549845,-0.11700013997555078,-1.4907534410968077,-0.16727339804575445,-0.24086552922051102,-0.42542598870487963,-1.9636317582237937,-0.6500663195362671,-0.455948437700973],[0.36388561400161723,-0.2344459129906004,0.4679223972539895,0.6363056453763679,0.7142992519247756,0.5492597043564046,-0.3166984022765249,0.44023208284333437,-0.4065750805015906,0.11340574387666653,-1.2450902030881432,-3.04401831845497,-2.570520022756264,0.20207882172089292,0.17006546390372496,0.16810026635493786,0.5313183917088377,-0.19395342572203456,0.5450182369945705,0.08500924967830725,2.28439288328378,0.4222736571550566,-0.15372773914062235,0.01661316296536111,-0.19314791369693315,0.028093808890914795,1.4328902254392877,3.174978674435422,-0.19586034984718179,-0.17386482284434673,-0.009318234570807604,-0.05717749342500386,-0.05832235926288468,0.035418777390353456,4.322647561783457,-0.2637809453668359,-0.09760207104419774,-0.5960318700225287,-0.03186613558828427,0.16574803513741349,0.3076384722576042,0.17791257650496867,2.4554397510270594,0.04191304621581429,3.1212802176910186,1.4753794842583672,-0.026586961720565683,0.15231494275466745,-0.5425092392265125,0.015723384964127216,-4.4761242668966545,-0.04037083989897,-3.2642974374404607,-0.3109046804234121,0.008365069270100826,-0.025863687558223,-0.6622869985932038,-2.7802330346596498,0.15349853805759048,-0.5441336394024029,-0.5245583068787913,-0.7070799709571437,-1.6539946847078837,-0.29771563343153123],[0.258020581913228,-0.47258822021819946,0.2924033602393226,0.3584442099290164,0.6507597681703028,0.747140296090286,-0.247611745804851,0.4089724344669208,-0.28186088599639775,0.18069349975434512,-0.7677054112606241,-2.7874952870095395,-2.56539370511171,0.23822008543967912,-0.01688311504501857,0.08530767024641427,0.48837122534208044,-0.011749253481001892,0.40875685814505114,-0.1996060647499518,2.449879689560006,0.6603658044973443,0.16492332885880956,-0.022549660342888883,0.08235983173371048,-0.13127305333625092,1.1540411219400972,2.65141898181945,-0.16419553067492823,0.13925681422302488,0.19779114797121977,-0.19241151188340908,0.0902317662346892,-0.10008933373008518,4.127524615034752,-0.027798390449890752,0.05570006776770786,-0.5313201966240582,0.15919386549689146,0.12112346547430253,0.2951776309179993,-0.08046160174246318,1.705179305308234,0.06881007325949612,3.171335521910908,1.3067982539502392,-0.019364224766346,-0.015875283940935875,-0.39852101675011314,-0.009457436986722509,-4.149164527971992,0.15657467944044534,-3.002234951856561,-0.0489341719846309,-0.30515488727485224,-0.1003863037144848,-0.4025530293979584,-2.2523845342588715,0.03325296735510973,-0.6312244914929824,-0.5860580271506414,-0.6322155128149931,-1.3897664106450967,-0.3313284062542406],[-0.016438844043219988,-0.12151988398739148,0.04899816517761885,0.34618852940392597,0.09467111217440898,-0.020091232976776303,0.18771653897467153,-0.06376068115810382,0.04411537008607647,0.01441292408338409,-0.7847674292159553,-0.8521670885305468,-0.189767349940027,-0.010463218757340203,0.09312257012672712,-0.12573976280684648,0.2861964856425746,-0.16317636422096024,0.34871290750105716,-0.11438805533112797,0.2794571758458409,0.15879488485264423,-0.0003026309768698887,-0.16611653195339182,0.13072742102764184,0.11662418155866809,0.17823070806407182,1.0404207760395492,-0.04551482669926746,-0.12681794576666283,-0.055325338396571055,-0.09164818961117822,0.03406699711330702,-0.1009214013410559,0.22984082588289598,0.7052417365095798,-0.14744734845290497,-0.04385860623971192,-0.0869946582055749,-0.12213815494329072,0.26953500945335207,0.06261105881169166,0.22097455148318312,-0.10231826158209581,1.3324554844649785,0.556887561995924,0.02741113782783841,-0.06169743737275227,-0.2891469720797078,-0.2378716882313677,-0.5034163454949254,-0.06481186648246498,0.04553825368946847,-0.16703920300124156,-0.1441156059678854,0.09637784388971818,-0.09810883328714179,-0.2345301748882731,0.04683186942665848,-0.16399330860192687,-0.18581142888843938,-0.9554585731816199,-0.9022035657027807,0.07386034307535537],[0.20668583730757417,0.29493434351373243,0.17189114572036931,0.3800477718870044,0.44668007727253417,0.5213683457630623,-0.3541965045636265,0.5774330795379109,0.1293097976369704,0.3186346661357322,-1.4598735103485285,-2.652343410568945,-2.8294900166711843,0.29297424349115664,0.018675709532318587,-0.09622957174068227,-0.06921677301108324,0.08030737290324153,-0.020046757926129755,-0.11742279010513129,2.6393392399739564,0.42479655305542646,0.18274738077014707,0.13879270012531703,-0.18780946267794577,-0.11963954045401028,1.1623293051674846,2.7370603945771537,0.09064168124428706,-0.19829327011382586,0.001170385674916119,-0.08605336197535288,0.12678100784068125,0.005418367953461095,3.3607996253382333,0.8318399501571209,0.004644287689061055,-0.02362211133659104,-0.16855287361809224,-0.15440842317565162,-0.04023886270173608,0.10617614110427614,3.1426125077345843,-0.17981715270177132,2.8086790680839364,1.5288692046067258,-0.14167457603292535,-0.16521381436151011,-0.41726214310502885,-0.014401916389614813,-3.4206939270208467,0.025736289147245017,0.33795324434540736,-0.027346518195901327,0.07129365799089783,-0.20990783459928333,-0.4714649352726384,-3.333975574105908,-0.25847846760629134,-0.31061207835883936,-0.7059000136002802,-3.8595787005786146,-1.9385072934050995,-0.40781676287670016],[0.40639661196893107,-0.20989669850437354,0.21263711062058108,0.6411561381751077,0.7538803462968127,0.5421951313484639,-0.08242205107308377,0.6759144440721889,0.15479611969226031,-0.05678951572348492,0.18589484553776342,-1.9705591691523232,-1.3398921803709611,0.20587586772923097,-0.0575437539041209,0.3076705715365472,0.12123711449932503,0.07351831831393624,0.3019661820171667,0.1466563254521493,1.333445588853978,0.4723118599869564,-0.1665190960148217,0.17510854493271427,-0.128181131442655,0.09750873614786672,-0.1028088062517766,1.9622549215182645,0.19573520795510274,-0.06698467535561337,0.10056820526402283,-0.04158199062480694,0.07288126492129726,-0.05181135890473021,3.1023404513569988,0.004069274342203554,0.08368237987795901,-0.09163653025272439,-0.03794490522900337,-0.1848923699353846,-0.05332067423817366,0.028291818543164732,0.7901695745123465,-0.08162160868189733,2.902586072227531,1.7745856927189445,0.030118120381954938,0.07803548181083275,-0.12062394287141857,-0.22332488755036986,-3.2732332712280883,-0.17572950697601064,-2.508806112864043,-0.3117719549521287,-0.10191626876434601,0.021661777782663597,-0.35710135459334114,-1.1133268684258297,-0.5142752246940449,-0.4952202476461473,-0.6751821232452418,-0.5959265323987117,-1.897477087196885,-0.6134996710767295],[0.222148975237955,-1.5677310632983177,-0.05269653546326667,0.24580072306962342,-0.22017510437990576,0.22276678184425858,-0.7662983161203915,-0.19247600151859962,-0.5415692620414198,-0.7350399854384684,-2.2233303606441184,-2.950414105712109,-1.482378808180277,0.017121198533320447,-0.024873935031876585,0.13938309201222884,0.6374945225193254,-0.18806368451415018,1.8267413206511367,0.15831524697848282,1.4718655527742044,1.401580842301114,-0.007816792210617152,0.06519913140612471,-0.1200934888108276,0.6428845001297668,1.3854293249596705,3.386630990763228,-0.07723782967905413,0.09781170131071892,-0.14168196564049831,0.04783588838726266,0.05404321400871659,-0.054156096271075344,1.2672237545000018,0.7732962583763681,-0.014250099463658822,0.4058150404677776,-0.046702676871802046,0.06938557863332084,0.6113929782328497,0.03307448447916447,0.5217613766729423,-0.11346882966730637,1.5803271606225848,0.4616285592534546,-0.18456093471326238,-0.1292698530605203,-0.6751063976154384,-0.14018380331422828,-1.4032927343109172,-0.03707410733532415,-1.1777208985502483,-0.1527770187337301,-0.09779100858124108,0.05628699705907795,-0.14036043751453695,-0.3388548884597763,-0.3227349516105492,-0.04078214175975291,0.048334829196258935,-0.5445641041054192,-0.6864405394010957,-0.16060887829727616],[0.1737248276676433,-0.013398733556292777,-0.002768934619411862,0.12711436595022815,0.1353312240568793,0.07663093428860004,0.02211913730187123,0.15606598967395036,-0.12368685286788429,0.18787234486978766,-0.8607645270691427,-1.1884751243040246,-0.2814076405129704,-0.08668450370793021,0.11122860357749509,0.0442402605849581,0.11798046339825713,-0.0157087476971082,0.43247796306617986,-0.1596943730897724,0.5783876441154033,0.34746367409225726,-0.0384143363841849,0.07217724843886064,-0.09611006210658167,0.19699388358266462,0.3479649966397688,1.4969985930015974,-0.07927041910246323,-0.012195367207208735,0.18828044765742674,-0.09655164575942168,0.02974329977262649,0.043514851709399505,0.5397879092465624,0.6344430783543236,-0.11369022056384868,-0.07923251767573826,0.05658113252112784,0.043086831315428314,-0.04913607592955437,-0.010565662544988447,0.3095398789586056,-0.00833550271807973,1.3211045867103424,0.8588696595880662,0.062331740722338824,0.14469841866760097,-0.04081335119625787,0.12162282352037843,-1.0453971491048322,0.08240737278001642,-0.4052038256565216,-0.24544169129514892,0.11792887033742389,-0.2476495911996624,-0.1104923496075199,-0.5956805294178656,-0.10513927840573373,-0.38589174696492284,-0.07341990691383536,-1.1074410367520837,-1.2958809722534903,-0.11298081976168403],[0.05848481381944409,-1.860926693160854,-0.04225801588429002,0.3468827275059126,0.2337440316432758,-0.05196570663318005,-1.4567673040463303,0.16346317850066,-0.2320624253520693,-0.807743285136794,-3.2882625768871927,-3.593263742656802,-1.2825498953250754,-0.07025353791122568,-0.04186115457023888,0.03959329869447532,0.22548207742235718,-0.1715574756212429,1.9755142076324386,-0.1675251816795772,1.485563968964007,1.7308939576183366,0.19666070627871124,-0.055357489792438846,0.10072558806998444,0.9380432917021301,2.854227416754266,4.552032685364479,-0.19253983583088694,0.021210798117447555,0.05835465762119785,0.08142650725305883,0.04702369993750741,-0.18792259048703708,0.5358540663379994,-0.08543453845421187,0.017656638833197846,1.0717351359184364,-0.11759648655684121,-0.19054635008723492,0.3385304281946219,0.11464319843633114,-0.27436709669816023,0.15222073771104105,1.2925078343676875,0.9321762132734139,-0.1372780534946342,-0.172044394667477,-0.15907688718177426,-0.022827828895413613,-1.0357981730437285,0.19644683442741456,-1.411498533665752,-0.04648227641231174,-0.15292855350172685,0.11265447587667007,-0.22583190884892768,-0.05390189400505298,-1.2662844070603057,-0.2902794851633967,-0.3217060769385822,-0.30278877612327204,-1.136920222078622,-0.04857885118234728],[0.11167932406027502,0.21634782113889087,0.3410309095476851,0.16976580875686106,0.3435274769099262,0.32112214738272166,-0.5663650588701151,0.38798429518600785,-0.650858691371353,0.33461127008918273,-1.357500938497595,-2.2081608509051986,-2.1065810519656702,0.15747376789856674,0.015166950853394543,0.22511115497251435,0.6169244868792937,0.11042453905434713,-0.28385144700145093,-0.1594136317537764,2.0103216192634243,0.3607140729036514,0.10726717108931016,-0.039634093896013134,0.11483526804818506,-0.11174249987526635,-0.5000411193725562,2.3553430180311494,-0.11810585741560198,-0.19486632256478062,0.15632200072217373,-0.013632991394522176,0.04706797875164562,0.11194909209384413,2.4303189726743084,4.147192881979585,0.04589569899255466,-1.228904828574649,-0.02260390145657762,0.16331258651784858,0.7648782818455353,0.011522060248290777,2.289899012335457,-0.16869957967826654,2.2582195989784415,1.1732599724006563,-0.0964610044808997,-0.03987038055273856,-0.9197334564188243,-0.020756584595339588,-2.806312400053534,-0.0418888723500534,0.7273829190544399,-0.055501166957003516,0.10695332229952965,-0.06475645607629661,-0.16328461348295978,-2.065600195004049,0.9215467908146779,-0.2928667948986521,-0.5126613591833598,-3.979781494607228,-1.4793663310568264,-0.22835517333259933],[0.3941756129870753,0.1323445227522424,0.38242091354349034,0.5522610294783424,0.4074871294128463,0.010383189776655836,0.20653397374172106,0.2951497424842056,0.03193615165927211,-0.1336948113065002,0.006263439056231234,0.27913670332366564,0.37084270864922353,-0.08924702242797554,0.08411644034855444,0.01864620348635046,0.20729572725435555,0.09035910864506735,0.13960517670417266,0.1009986209954516,-0.13828470216355843,0.08387555236283514,0.11087280605178079,-0.06513709095767303,0.1253512025910628,0.11391458817063271,0.04853681163517648,0.029549897822018854,0.08648354151978521,-0.08531392157651592,-0.10277611311423361,0.18735566106466778,-0.08247577908530124,0.17931553639377235,0.10098067105860359,0.14713949752160405,0.047847397457578544,-0.16644164562296196,-0.15450666959429782,0.10866564208638868,-0.11433807668650627,-0.07721896939411721,-0.06805074758010665,0.08528720921848043,0.21345166565752643,0.02877291970992215,-0.07475959697397849,0.13648670457386286,0.0727880384645494,-0.02545030791554989,-0.20308731387339105,-0.04255191801645744,-0.06579052796368669,0.07209232013909452,-0.1808884672538821,-0.22899511222244126,-0.20521409189391987,-0.3134183672884068,-0.31532102768596754,-0.2707614969793905,-0.27604004111951025,-0.47182629360388184,-0.29152332290133026,-0.4510911981653732],[-0.7526824034077211,-2.143745507103756,-0.6216511261470422,-1.119607476541045,-1.199148703303875,-0.7609436835247343,-1.6730915840939207,-0.85981864479253,-0.30242961693918624,-0.3559090794572953,-4.0135278139178805,-5.014285892019112,-4.340558662158311,-0.1751705982412075,-0.21200050634783368,-0.01304469298374875,0.19612743821965561,-0.16020083742939883,1.9064888331750425,0.1965787253197278,3.9322872342246837,1.54795074727506,-0.1749793225497559,0.17145040978664428,-0.1778246727699413,-0.1410951267554844,3.737709638652273,4.888362304156495,0.19674138850836576,-0.1542926778886999,-0.07236567424634152,-0.11603074090472934,0.13651819348543848,0.19710960258530436,1.5250000965215327,0.3548696912369354,0.09633790952077304,0.192302918163438,-0.1702810176900041,0.13934115253849466,0.14539070355784411,-0.14851099794990275,1.520708557704156,0.014645811993297453,2.8306991714658434,1.8800931195457373,-0.12088996520149414,0.09989175578012344,0.12906247626692838,0.2536700838486954,-1.2446105154934728,-0.13373411727982304,-1.868970348113135,0.35348505194213675,0.026336360305655372,0.3383094247632735,0.7193453960094669,-1.0172193581628168,0.4490193944755418,0.9583667271891076,1.1155879429748214,-0.28066316408107334,-1.625194672997022,0.8625943321846109],[0.3410559494430977,-1.3923026725856378,0.18631405660754058,0.2380982562777451,0.25873166255777336,0.2093181165320298,-1.2677281277816688,0.06863197155880343,0.016930707468551166,-0.32271116308266495,-2.773675183074928,-4.027646498382463,-1.4275410580272434,0.18654040297692545,-0.08473922685568241,0.1360703172299935,0.3255125009053167,-0.13962382262357603,1.5710528461159754,0.07813124270002458,1.5349054853024553,1.4757511259547187,0.04947745793513017,-0.15490845205956172,0.04248438491552564,0.6462992016713659,2.602228940198848,4.502221801853196,0.01952983053485946,0.11868546782943162,-0.004746425960485301,0.0011086553360775686,-0.06622897612249598,-0.024037855890472665,0.7649987249933161,0.3624918603351012,-0.19672976737839543,0.6836295629073387,-0.07505220549280792,0.17894149296412581,0.21655768566873385,-0.18720190650877575,-0.6739318653923918,0.15615093595898477,1.4413670940222134,0.5328189379538469,-0.09642099164059702,-0.12350263584028705,-0.31159794649460565,-0.20493902783767728,-1.0427651849721626,0.12763003064192174,-1.0391925003737315,0.0700539022752163,-0.24652914435136783,-0.22975372595320329,-0.21209161593630754,0.5932788553971795,-0.843237454830325,-0.1898563833237018,-0.386919080771673,-0.23120337789183998,-0.714064032282815,-0.2822922806896202],[0.2654922434799249,-0.6672395343452336,0.27935167605274785,0.1470169215262511,-0.010610047267767583,0.5525322064290032,0.269239418656598,-0.23017746616787768,-0.15670021047143498,0.13308481580124012,-2.048003437678725,-3.306984564972451,-2.1496183151295782,-0.05265657925422179,0.0980901385777531,-0.13032385188337836,-0.012162183258659769,-0.10251040768296589,0.7505451471953984,0.16126837738622124,1.894306417673706,0.608405289769727,0.03808733220335164,-0.15444053094310553,-0.13440286961222248,0.09349819566528163,-0.5613603472208962,3.869022161454662,-0.011004384909757192,-0.19962250235937073,0.09766754168480823,0.04444664330752479,0.13946151768457504,-0.05989427167022596,3.043227888150435,3.2928428597665587,0.03696538691052825,-0.2105267719193106,-0.12995942185462067,0.11950049224778331,0.07612356487750664,-0.027184060294013268,1.596515642066751,-0.1164519833667078,4.2128385801102795,1.2157582638799096,0.11876370877942888,0.12839430428640713,-0.11095142053357306,0.13925537483120914,-3.7993693207861283,0.06728058919417768,-1.5723560324861305,0.0687954004839187,-0.14751720044859257,0.13758194555375308,-0.085553398174166,-1.4645994254778183,0.11038706660229915,-0.32062235695933033,-0.633740170368333,-1.7774360647570664,-0.7986715375573233,-0.44930081687928064],[0.4125055469745983,0.18955085311299405,0.31135933749432293,0.2285027265278098,0.1933788855930332,0.25650820939825897,0.05807647711646629,0.36920381375720857,0.03548639149450805,-0.17491317546353688,-0.3925500947305674,-1.0354552386214433,-0.43707104970404803,-0.06638362726709604,-0.03883187760174183,0.028960583146725803,0.23499819420063098,-0.09684899515835906,0.2891312879550915,0.007539906873924279,0.4855767487763434,-0.029294345366673594,-0.1945535879688227,-0.13635064586095086,0.01312958484775048,0.07979557513179206,0.1610188948883232,1.0306503005276249,-0.14108658001818047,-0.12439409847102408,0.09003892905219707,-0.1745174632879631,0.012164792316809336,0.14391772875372882,0.10801965462685965,0.14157928264142408,-0.19296623433135354,0.06205199585155024,0.05090602723587745,-0.011352618718321217,0.12964577096432253,0.15595730621521525,0.33872909054046363,0.035454468928165644,0.6425696346970264,0.12753862355668777,0.1791923395519378,0.1919735773883408,-0.29388901842889936,-0.004622471173068441,-0.441354429323568,-0.01651898201013155,-0.27568847651414025,-0.22707275092684803,-0.13034955678606008,0.10470223010268775,-0.08936298193983391,-0.3062842283348095,-0.18358221135027825,-0.3057441480644021,-0.5334027916367867,-0.4678776607871658,-0.35408224625822204,-0.46760117987373606],[0.24037031098492875,0.004166652197845792,0.07667368787816675,0.5963536909300721,0.42577521639514404,0.30225386362381307,0.21966183751859472,0.1741663803844582,0.11007087695557924,0.1298872308577344,-0.47197620630652043,-0.385988829777249,-0.11846867545549872,0.17330280458783456,0.1874537924156118,0.22429842908529432,-0.06057436756704242,0.031229767143764076,0.07054847293630136,0.1105361008883019,0.05695267113915879,0.17293756760023746,0.1911894033229588,-0.1859004858470196,-0.1029676055370576,0.052167325688595625,0.37200600461050354,0.32200860681879623,0.1800627259043434,-0.1544570557712951,-0.17050818957789932,-0.11549996182816509,-0.13712778636621784,0.18818070980799473,0.35201171510233203,-0.0003195917083513844,0.14080922382999134,-0.008847094794165438,0.07166294060413847,-0.17054349799400548,-0.10846600719410544,-0.059830225776278584,0.015395871404601203,0.04435635323024342,0.37158448205074185,0.25309413757682886,0.004112360845844265,0.14203506344611178,0.07743711921179808,0.046707460648229025,-0.2369383259285467,0.05127602930683334,-0.2591847565098176,-0.2668267287661099,-0.023196330010982907,-0.23303636655943996,-0.299342115509061,-0.3805881049140076,-0.2974699073487836,-0.3907928560085011,-0.5038599196571675,-0.4271996153150222,-0.36882698646941736,-0.4131083498379828],[0.5704227217007327,0.1064627661532731,0.24989995065748585,0.4061704438499553,0.5894593786345648,0.07310850926438779,0.24840057873845492,0.2302838231980644,0.2832131446932377,0.13413048294553181,-0.5339660598379465,-0.2328158662302961,0.679354423546682,-0.0316081433711861,0.22362749210516386,0.0279562049696587,-0.1369614110684238,0.19333941186794157,0.04939301358448228,0.008817382430982956,-0.3934694162908981,-0.008253428419863306,0.17236776436962015,-0.04130012604217015,-0.005326895701952328,0.16353224534064917,0.524704678649195,0.48534146832139485,-0.06460270655148728,0.07296431026720407,-0.06714310880326294,-0.04779959745501064,-0.11445334632233717,-0.08506076071999483,1.7950426079810429,0.10964760812745719,0.12591337249499795,0.22689970102025264,0.10671192954229874,-0.18768423406005832,-0.00416708054223798,0.052752793287221156,0.5042441941251713,0.0842916440123676,2.4217019352923685,1.2606868964446996,0.011348742173749399,-0.12355381803703187,-0.02513976225187132,-0.04298608520717677,-2.3953927015434213,-0.08388963279030426,-1.4191769424300893,-0.1304855146687391,-0.152480633020037,-0.219142833423219,-0.38592768650013076,-0.8157602564487882,-0.2664481343062129,-0.3651091610407053,-0.43373540022061363,-1.0754313075028932,-1.4944045195034248,-0.2406378831903931],[-0.567695783059585,-3.006990601132707,-0.4934513961416557,-0.7810792276966758,-1.1271441435670488,-0.47822109537169966,-1.7320434530302575,-0.7390950342436142,-0.07781734967312028,0.009963860886189398,-2.881130964460928,-3.6238703799081162,-3.1422252468900953,-0.174268198825638,-0.0706084634587635,0.025974974239195113,-0.036076892738968615,0.194962957902919,2.873654121156625,0.17298026361236518,3.0429774201422197,1.5693552149622922,0.06014639904463942,-0.14619799751083573,-0.1444637454947733,-0.13874969854344693,2.3681608156537806,3.776628930013963,-0.1475507264248539,-0.1751237068770676,0.15142774242583057,0.024876010728931253,0.041547414696555235,-0.11352825981869996,2.758831971253162,1.0583800310557805,0.14053074895658596,0.0040484518926641455,-0.04656523500249676,-0.17462991842108455,-0.06917445478060306,0.18004786714841609,1.7357158550763008,-0.1014200513603587,3.1231618144619087,2.1318878331030024,0.1989192517044382,0.025472668641092433,0.26934987044966624,0.1661021103562072,-2.8908024422747713,-0.10644456479888822,-1.7803221877692874,0.1029955380823278,0.1737190686472328,0.08915644695967133,0.7721334542174423,-1.4135780244185054,0.31088984478358406,0.9067112585811699,0.9248909563812301,-0.7533812834201484,-1.5980325254665493,0.8461002652391928],[0.21754897949671867,0.013485736245959423,0.3646262403571195,0.5986962094058158,0.38584820495186023,0.35431074563875625,-0.11567628773422542,0.46953228047471796,0.04834377366648472,0.11562221680708198,-0.44272616046050034,-0.12789291391094398,0.01130276680234845,0.07281050334688907,0.2956711757176438,0.001394155475468204,-0.13358096272647324,0.12805905386416833,0.25677437783057877,0.06026044326025576,0.2356958741875978,0.20839798253048336,0.08711446751176155,0.11860832288364298,-0.09259165864895601,0.14358167424412863,0.5061611761075808,0.3906497122511593,0.1813326088409672,-0.1568776345875069,-0.051699007297884236,0.10831196334771614,-0.0804480018111054,-0.15346871252974081,0.39293263933852496,-0.07513412637471498,-0.16243520697517005,-0.008098915056443485,0.13059036544119584,0.05264116196497143,0.201247764798122,-0.04294276041012379,0.369695166333399,0.04442978821231386,0.8935852145525147,0.3855899772145828,0.1972269187731996,0.06071552196425445,-0.05630481250316062,-0.19745833299782836,-0.8561555016321797,0.06288232347901168,-0.7341547580424155,-0.29552406175240087,-0.013118831547713023,0.05722418698347539,-0.5453473343156298,-0.6382594911401849,-0.44038926264729134,-0.32153138652045776,-0.3485015898912498,-0.46158817138996794,-0.7469570087351592,-0.18786390594169766],[0.38837920649172275,-0.6297761387182443,0.32546285215041554,0.10013986344270581,0.19711772606813413,0.33563379157710804,-0.33877924744439336,0.0727326183427257,-0.10865275036218296,-0.01646539391286301,-1.3284580086870694,-1.612149084085814,-0.6269519398969617,-0.08234092243356045,-0.12054012327702329,-0.02775180878199509,0.18556999085652282,-0.0898296863619378,0.8298454098915389,-0.05442848711406781,0.5699588440857069,0.4982635325315091,-0.14134001915754502,-0.045606857680741436,-0.04657016578560044,-0.17180526180348535,1.069558534790005,1.7083892388326325,-0.06891402834252691,-0.1167569604755351,-0.08559325282227803,-0.08699098431758046,-0.05331706457202223,0.019051194851874342,1.1862159940921229,0.5456743412204912,-0.08359301285041179,-0.18897197568180302,0.05929272847726619,0.0077950213324847195,0.12126816845382911,-0.04935424634245136,0.3723898424604001,0.1903509653550738,1.4596150819239841,0.7508010626449709,-0.09198553481955987,-0.18766460629478765,-0.3334391108310036,-0.14841040601451244,-1.2279992079649626,-0.18912344315723148,-1.103320586965157,-0.017714680940026768,0.09761817969191289,-0.1174558064977384,-0.147955974860598,-0.5615611778250159,0.1584799253065956,-0.3319674849686691,-0.007072978748515777,-1.0942747449610573,-0.9805315664693598,0.03780877923280477],[0.3075581086267236,-0.07719900282107042,0.03138279451064215,0.24954145484773857,0.511389796480569,0.20312260726211204,-0.26635795259021944,0.30952881016031436,0.15952723445357392,0.1544129986712311,-0.6848984548212265,-1.4208418555817894,-0.5966079404184503,0.1403098617857413,0.237957357186644,0.18042244497333607,-0.02984162995131756,0.0066747650686799775,0.3482912683807236,0.18181782272689917,0.569404127596676,0.1845879018937331,-0.002883743341083378,0.10147412780038689,0.15523032624038785,0.1553105065275888,0.8703154076537173,1.6639676016883316,-0.0837116884709718,-0.14897506821460943,-0.06403124314252145,-0.08549502848110375,-0.16992424045426313,0.16769624372354403,0.6866013930909866,0.1852066709805975,0.06591531981836357,0.19026195798083045,0.1646774589033041,0.029563300312358987,0.1423760227980548,-0.11924820219391724,0.24438526594667304,0.14369461659213867,1.301105293891858,0.6835909520180876,0.03163439561977527,-0.0014551436912407512,-0.15634978160113028,-0.19175928223135988,-0.7523744698848983,-0.11038816792083442,-0.8693184112104005,-0.2321912314520275,-0.15969110149401203,-0.254265482785051,-0.4513120455936841,-0.42624903073542747,-0.483209350619839,-0.34441236023848637,-0.2310980957396679,-0.4909814680157463,-0.9835680354393733,-0.4554633735259117],[0.32166330358842643,-0.09491338095848872,0.2552625250835633,0.1434775460505063,0.06574309162219374,0.23464046571999247,-0.11106791737065586,0.19007575249739275,-0.02752923743594886,0.1421238911126948,-0.669209174093114,-0.7980697891825703,-0.08536799960633341,0.00609720805274328,0.10463824048429424,-0.026022099033601094,0.2688953944607835,0.030528440812465363,0.2703219455451724,0.16919890570307844,0.4611290653312798,0.0991210330558122,0.04341062852121286,-0.15501273963021892,-0.14562031731999125,0.22117615432796892,0.2541327479696331,1.09498987232917,-0.03188175240947669,0.016469448574315926,0.051095987464741977,-0.11647877155659217,0.07013831595059655,-0.16282932193897504,0.406457001994008,1.0662157853885201,-0.03964827180090466,-0.03537951685897786,-0.036094246064414026,-0.1987704192575496,0.01769634001081572,-0.16634861000555345,0.5565987144270955,-0.023001689631314826,0.961166569903346,0.5736631011541494,0.051482830344925457,0.12149542263011953,-0.25373240017718446,-0.1598169285198678,-0.7127180303242562,-0.13684719911789012,0.19730051668357265,0.05991146823866102,0.03227755985047161,0.07047205264185352,-0.20835029264961819,-0.4601484342449203,0.06429568220729198,-0.33284169322325025,0.007284366893324607,-1.3171701345345443,-0.9760494151057177,-0.24358237436953076],[0.31124133681793636,-0.6586992729720721,0.36447222667853596,0.38182775516614315,0.6494892149545188,0.4416602276283437,-0.6970281838266366,0.32192952184326995,0.35788974289647724,1.4298355407410153,-1.3952556318101854,-2.436520251453332,-2.1952954918861054,-0.0970364121287413,0.03988327746917554,-0.11653235729934842,-0.1905081421708221,0.09265850837471101,0.6181433249616185,-0.12210057247345017,1.8122181103729078,0.5199368699247773,0.049746646173089104,-0.03751773615131154,0.16039839342740597,-1.4586493746375513,-0.25301083578657385,2.617358134274601,0.1946200237644683,0.04803893142459134,0.07430472134074029,-0.027784137776219353,-0.15702345944202467,0.11850443456105658,3.378459323061106,3.0597688033244355,0.14467009913609818,-1.2124247068496876,0.14430961880982035,0.08492861335132157,0.029673076489064885,0.07051253881328662,1.3847770548250262,-0.04615490191967542,2.5585786349048654,0.9547926259901058,0.04592997395611659,0.13845500113571169,-0.24652003793326902,0.05213798735976949,-3.338260426987345,0.16382305040680162,-1.6015372936170023,-0.22066482940111834,-0.20609130163262415,-0.05306125417596433,-0.37085793115205995,-1.4694280633731502,0.9410767930313084,-0.4416991418571387,-0.6166805461969894,-1.371079307967689,-0.68540441407294,-0.5006519442430872],[0.13229265505061213,0.02144407945994478,0.3193064624643179,0.44100108047054637,0.43440698420016116,0.0922754547991136,0.13251657926896845,0.11088994618415444,-0.1037067327340503,0.16731680507719732,-0.3862382432446219,0.1717480687486766,0.29411386230098696,0.006159418391453217,-0.055627366340350114,0.19956920111220514,0.06975637357935399,0.12262740688693946,-0.01697279363033315,0.03208304378208143,-0.32656727023537896,0.13752974778443755,0.02366483983964071,0.16532448032408337,0.19842913293216446,0.0036999919730585653,0.26740254553207715,-0.05954435421288243,-0.09758897495245203,0.172702326104415,-0.006528803134063121,-0.09300054396007723,-0.010710057020141134,0.019271073863303373,0.1109709488550398,0.18499325939766637,-0.17204117009449266,0.00010158772202281753,-0.006790696205853847,-0.06100793802536161,-0.014778867140445063,-0.04538858517811431,-0.08250984211824978,0.060873384516432316,0.7345343263339436,0.7234068198825758,-0.10585225369985568,-0.17791586031994866,-0.021115861519234093,-0.1565285023696986,-0.4792088916929968,0.13221541608473747,-0.18509561117723006,-0.011397087620779008,0.058394740727919274,-0.19095064971467032,-0.4050368148558634,-0.4102904579875886,-0.32831217700063925,-0.48815164710331144,-0.30132992317918933,-0.5118243050857499,-0.7796561394485122,-0.21799625140942744],[-1.5804599355428492,-3.0141094026572803,-1.0844568031800206,-2.228812996681596,-2.600025767233948,-1.3198891656193577,-2.157072394049072,-1.4553096441264188,-0.5825083859605364,-0.35198366682197385,-3.3240263365836498,-4.599862279873245,-2.3837542687946827,-0.2665731446144421,-0.3571993504093176,-0.500273803620348,0.1668027429294837,-0.1810710122201166,2.2399392544544536,-0.012326633539221726,2.140597212023321,1.2288677536868107,-0.08146973724370642,-0.06508844003748004,0.1635440280623241,0.15609693355526755,2.866996646482151,4.392978990526692,-0.046569399195078104,-0.13306700127912913,-0.11706399028801667,-0.18903198378395134,-0.02359450566003432,-0.0745058793742138,1.1986240374606831,0.4398814936216671,0.19743356988588623,0.07968994787829359,-0.0576836005108734,0.06771397523369355,0.006965008097139148,0.05650340126019471,0.6531666066695516,0.19128603702079422,1.5441229557333598,1.3821125891227422,0.11480860513876073,-0.14224018195739152,0.3483916131373039,0.47314639075323667,-0.5688729350157458,0.07430350500983518,-0.3211320253146254,0.24616533327316925,0.5371619313870941,0.5104059500604488,1.6359389879188444,0.21403999995822293,1.0926792504557192,1.8649771211861457,2.3133762360108494,0.19646419036108506,-0.4444269360477119,1.5020781288621945],[0.2365047759083675,-0.4019966409558365,0.14948654766434094,0.11982504106054528,0.32861695301108923,0.32539838704623514,-0.24544929482629974,0.2959185232255624,-0.25106687128565824,0.3224346657574973,-1.3348110670973954,-1.6910957335667292,-1.1031203350540166,-0.11149202310140041,-0.10970085317684775,0.06696327678010106,0.3860410700722541,0.013173668629430507,0.6060603331316126,-0.19073489405967045,1.088239990357211,0.4235783793065305,-0.11851327461041815,-0.02738016807945226,-0.17800289289423343,-0.395307683544473,0.6264200038340891,1.836651893786327,0.09786607221031252,-0.09481586113532599,0.1570692355254743,0.15079539834262495,0.13149966736277124,-0.0022662376933804684,0.5053827207780875,1.0643535323681483,-0.07705002259824863,-0.3944951542808686,0.08922222390009849,-0.06796347441399728,0.30393178682449057,-0.01837063234669864,0.2194809677228109,0.022289515837845025,0.9576378547653992,0.696963081503575,0.1747384468802033,0.08818724373425307,-0.21273430357320863,-0.21580263556557205,-0.6125579142013263,0.08694195873936356,-0.5165417895542725,0.05810480063404598,0.04918333336373314,0.02546691045515276,-0.034412342404112714,-0.27233324974653944,0.0471361466554117,-0.2984432579188136,-0.13192962151230028,-0.9022031874168762,-0.6971040026441073,-0.11922889148454482],[-0.1326835254765619,-0.45581275602901744,-0.2360278868467665,-0.04311978705768651,-1.022312433052733,-0.03883392303323947,1.2052134969383288,-0.6052660983978194,0.49414761891649217,-0.8578439642273438,-2.636265256786474,-2.135263887058502,1.1629380074256308,-0.14459177024566722,-0.0768279015666159,-0.18753385910821785,-0.5040592162669971,-0.035772438750658886,0.4514253590711826,0.11078346182941318,-0.9640611923334494,-0.6159354064119053,-0.1846196186199478,0.007179759945526498,0.1457077344976095,0.7942986500808409,1.154479250386314,2.9193513289838275,0.14576128461504906,-0.11634114507893152,0.05026575454241977,-0.11973387197318744,-0.08790359976366809,-0.1825908676046747,1.4470474089162744,-1.6707343685572136,-0.12198201360487425,1.3580696340743443,-0.17390219463488574,0.17406051149775909,0.04944652842573841,-0.19768476542591573,0.5650525588035256,0.18052468775764002,3.3999928205103953,0.9276438438053548,0.15959563635499635,-0.17443347378338522,0.3115000877165405,-0.12657906252390855,-2.6012652155868117,0.08767931354431607,-0.013316835978373331,0.07973005922755536,-0.0285937978757055,0.022352223502867405,-0.015476061764449628,-0.24348679665890696,-1.245211040243548,0.26846667672049807,0.09512262915414721,-0.7804374652502096,-0.5769914102853408,0.19337415528343255],[0.5191373951351519,-0.3718375169788451,0.07293162834465573,0.3284036588760587,0.6133346767681322,0.41173656258547386,-0.214018663385176,0.1406422536918372,0.0765125394345358,0.20062385190417353,-0.6185816417724883,-1.2347781372178983,-0.501622256520082,-0.027621956620827805,0.005328972400148929,0.004102860388493527,0.27913697770001383,-0.10592661841695206,0.19288103368885387,0.13166904073901214,0.7739242071242242,0.4092895156271601,0.12221025172370459,0.007875697259574987,-0.1857082517587,-0.025358779195614793,0.3873554166395561,1.5705567860246747,-0.06872315396066941,-0.10587739617425039,-0.04023821358851229,0.0068145205209850235,-0.11753168451377496,0.12895925737923097,1.1398671875834745,0.12542926075971184,-0.04605208557771681,-0.0006998208566321019,-0.1417108590334177,0.1298047460576437,0.058854201193061215,0.19431975012004926,0.27374079114796607,0.12017896251426868,1.6500664478220948,0.7859422983136067,0.19805541644570557,-0.006713641399226061,-0.357161886314688,0.05289028743361218,-1.1840406223469555,0.1539454809893463,-1.360819603928297,-0.1797399085741367,-0.07604999428386383,-0.050523823005470925,-0.17288618924741778,-0.5196564742718436,-0.13014328635307826,-0.43303648064200917,-0.5417664750220784,-0.7087476907813357,-0.8553583193772767,-0.2833881908014196],[0.38745492073049537,-0.30331329127432677,0.14152098026968282,0.2997479504636415,0.05556860911868484,0.9717591270059355,-0.6263793206706999,-0.2107229079240689,-2.120529140858098,-0.4625469987553563,-1.4746268997251697,-3.1209719641233264,-3.005573363938415,0.24483243875300853,0.0895128497447763,-0.01578109587886291,2.044439886062958,-0.18717640504098354,0.4378254550870878,-0.07524282124474518,2.6374555037064256,1.1324680527779876,0.1167377094418649,0.04604901608502346,0.10036902968263489,0.4946096227865502,-0.3846332885029595,3.7415948630000258,0.10954400299303318,-0.0209202448297498,-0.07976801980991768,-0.0634099239407668,0.14412372364620785,0.09327216196143134,2.3241915275615614,4.2517000548863875,0.1721593303894009,-0.9087530809013662,0.11071990702048595,0.10570614605859385,1.574060350128444,-0.03142300188090577,2.0906754887947305,0.0007576163245502643,2.115112428287181,0.7868630289300742,-0.060820524293431516,0.12677403506044416,-1.5862535273790546,-0.27602487095923023,-3.225651721074111,0.10613150479208139,1.607472702763566,0.0014195820259681445,-0.19530013750895692,-0.127005292592744,-0.1779437998533539,-2.045944109506631,0.797369487956093,-0.4222358879154973,-0.6586240150192063,-4.0987377544242625,-0.9479104456567479,-0.585279962910772],[0.5796641092198798,0.04437693337315788,0.32942723895070036,0.4421696166193865,0.7313332315098913,0.6666533279369509,0.0639772583648263,0.3214487493332117,-0.07457334657004513,0.2232419340349517,0.4518113913818104,-2.0907574163402094,-1.5686344500765994,0.007396799567001407,0.10749640372326372,0.26948897177145276,0.26839871824033573,-0.14610475013854876,0.06258538816513069,0.007734464063316959,1.4448806768906928,0.23029377863907965,-0.0953428359214227,0.1571933746676772,-0.118053130214361,0.09303458783663533,-0.10434500087615149,2.4081359554970305,-0.01241578298466628,-0.0834166702965466,-0.03625422384688379,-0.167677118504153,0.19002934269209631,0.15517039393595694,5.207303031773956,-0.3638831137851153,0.148261744021721,-0.1581593568084032,0.12872126921103766,-0.041001954391478884,0.4024825424061726,-0.15747725026701886,0.8709777844728753,-0.10098196008776111,3.8890976105793764,2.1895328393597593,-0.010781624306093557,-0.19771611723012433,-0.4044980374864726,-0.17514377390386976,-4.946187621173783,-0.006237506741753662,-4.094955409637671,0.06947374785314736,-0.09040394232223825,0.059132298648255754,-0.3081227531219689,-0.8792694558681181,-0.32134518482497343,-0.5969565071324315,-0.6629314333434819,-0.6192325288502257,-2.321945919014681,-0.5888556543641416],[-0.9697562584606674,-3.2179951163696323,-0.8115197340388913,-1.2047546364992758,-1.231045772550937,-0.667519354941411,-2.055686898744147,-0.7677172464465913,-0.30964192476937197,-0.1610087634819063,-3.0627837832165925,-4.207981866378208,-3.039870624615068,-0.4038375684738598,-0.38326305504263525,-0.37338494308713455,0.06911938663682193,-0.002205802421745673,2.78684498023305,-0.05890681377947643,3.008112306201272,1.671370190226299,-0.17632537281508506,0.16179540204419363,0.016619315246551553,0.0885022947848928,2.887481048981892,3.888182812471445,-0.1304800734806686,-0.02110262893484699,-0.07020792708639176,-0.0947892366462714,-0.08721727250691158,0.09858635610022282,3.5177683712090513,0.3631145896127796,-0.1071764223575797,0.024086849770357792,0.1175778708764254,0.0531496589770491,0.054495021943219514,0.15191451928970628,1.1569157703188528,-0.029620919467731988,3.786977061950272,2.123382432653276,-0.09706303428408508,0.13229052344394632,0.2693127039754316,0.0380543311702711,-3.1552137379428546,0.0061949621654271425,-2.9077376661976158,0.33044163590461334,0.10739291752483791,0.29062605591092117,0.9055759117011277,-0.5542920300298609,0.562247282399688,1.1347194997760544,1.0584576547380176,0.24462738108031665,-1.6834575894036317,0.74952152312969],[0.2885592597084694,-0.2705020856857286,-0.023351401698389146,0.008049126331438904,-0.01145959488998659,0.08614141830092738,-0.0037970470906303635,0.027935447893104214,-0.8585454554428886,-0.49301517960984365,-0.5903909801655418,-1.4589264363683592,-0.6182446664563792,0.14131493836025422,-0.01668979264402602,0.04726670644906262,0.933365138630469,0.17397803863241318,0.06639871347320997,0.11264984946844231,0.6814449181691054,0.2632995849730866,-0.11149435146164795,0.13296929861726536,0.19183627935286401,0.3559783432252135,0.029301601308556587,1.5357053977214117,-0.17300596851133082,-0.18428952816875263,0.1753107557384403,-0.12276798735039743,0.09049789991319229,-0.07701412535768509,0.13529611166394637,1.3416523742496311,0.07226376555877512,-0.23556747506787704,-0.11651494203344592,0.039707310455368294,0.8003138800666081,0.175416891008572,0.5148264697618478,0.1562228897675974,0.4078452213397719,0.4685479734870093,0.14878704774084667,-0.13354354626586906,-0.5699815599766146,-0.04383632103190658,-0.6584774525271653,-0.14503115632013863,0.6624511241879528,-0.10119762269013934,-0.12382478140356216,-0.1301880357147983,0.06965777045983977,-0.5555840038370026,0.06628923561091495,-0.20413910059660895,0.02410378768214681,-1.3430016295314193,-0.6413742695793385,-0.08330621414070123],[0.2734491915501456,-0.11138242602738176,0.4046182913313903,0.4950721220051093,0.6537603333325882,0.25862398812512927,0.06085894694224149,0.3226865340225436,0.14411263885757472,-0.07149679465018134,-0.2611600626810782,-0.9920420014140608,-0.49214715373737056,0.2414551385547103,0.18631601346798837,-0.10458229026433996,0.22682808165176555,0.020394868106380665,0.20259732829827531,0.07059316944555094,0.7205356355451534,0.24937112037195572,0.130452488312371,0.05160704982458908,-0.16293297956895555,0.2606005434537113,0.2186099074575678,1.3108060449080963,0.08451707130114244,-0.03948058660155773,-0.10578577483218564,-0.1412977067405369,0.1237593105978193,-0.022771610316636437,1.4351442338727924,0.03996799047631594,0.17403051280333987,0.19602358687983396,0.12191933461187843,-0.07460187769796997,0.06928733474910793,0.0439334684977119,0.6187152095536537,0.003780567564891424,1.9936899503755892,1.0739701861352773,0.06167732925150987,-0.011137588902511542,-0.17200402869092138,0.04738070380643083,-1.6924932583867964,-0.12398326657031716,-1.398616223191905,-0.012399677166543173,-0.16652653506889936,0.10066331859765029,-0.4527867244178104,-0.6630576119924686,-0.44537142037655436,-0.5845310545820563,-0.5879587424596658,-0.8494909505637858,-1.17400965743568,-0.32463574624163527],[0.41012115236528823,-0.246451205266967,0.40389883596192244,0.4913752285721921,0.43330787339936905,0.3248415842456273,0.014785145078951555,0.11299936553074659,0.1571615566640575,0.19758744112246598,-0.3208445543868978,-0.6523548488550864,-0.25970713909057563,0.07034264247375929,0.0421384088219916,-0.03236479068206245,-0.11998273300225877,0.16989420865450916,0.4733623129480543,-0.14386783002568082,0.6881634915122847,0.27021915055574397,-0.043047886969474536,-0.10079371540022218,0.1306322096187688,-0.03651440977924151,0.44073063216393843,0.955341350714529,0.08349556007880088,0.13051113640896184,0.0022808604610446426,-0.10901358442972962,0.012862380579372445,-0.05748687960786611,0.6096667598859362,0.04577032418747585,0.191887553010738,-0.11828026919993481,0.16750807579515892,0.16401667162579042,0.08835554913082218,0.11410992608442977,0.25719382884082476,0.1559171097906204,0.5206432250873124,0.44059219791774146,0.020359762681775695,0.04328089876430824,-0.07525117144591444,-0.13832427847977224,-0.7243453899740325,0.1396075264755634,-0.49467156468534357,-0.21239430016721128,-0.18070915755879852,-0.02479690537501814,-0.44371068008779313,-0.45945005144079837,-0.4417668142671568,-0.19791211073687523,-0.5562984198587332,-0.3283702042369169,-0.7611604353867297,-0.3561422289665928],[0.47658550104404657,0.025572401600644945,0.04230351332770603,0.48620314431698985,0.553687956243964,0.13486923540949153,-0.550433133042663,0.4100433548790389,0.09665396325523551,1.2120325127789344,-1.4291888036838585,-2.5576150749722375,-2.051029168593801,0.27066982447772886,0.011292280052506522,0.08361363708392984,0.04487575999417236,0.19446970185704826,0.04601074539185807,-0.1508561137361074,1.6559921138443656,0.6493438932262614,-0.13241459982126413,0.1921777941068723,0.05964632761336752,-0.8995267675908423,0.24576042089610856,2.5112790452500535,0.16463394297051942,-0.0018641954034948616,0.11718882611330877,-0.12173157191941782,0.08534150381177463,0.10564409520618451,2.6148917288962616,1.7565232218128404,0.08357687331111663,-0.8966505454656124,-0.030589133455787565,-0.1598476442302375,-0.08658258732579158,0.12904830258196526,2.0624558313724233,-0.17589391360972542,3.229928069031585,1.2497188476336538,0.04503269910086524,-0.08883026265198382,-0.2347490478603391,-0.026461571460692102,-3.132564913895659,-0.1815746747855358,-0.3039626837891358,-0.2601831919369271,0.10625930973100704,-0.01816349681212349,-0.22539084496525333,-2.3668112414973206,0.6739006745935247,-0.2021820109471895,-0.4112576009101547,-2.7462130900059587,-1.343308516939474,-0.22765329430634737],[-0.8518474468778828,-1.5642894591423273,-0.7729898135590294,-1.0556844694124239,-1.0795391419476406,-0.594305616802387,-1.5038615638934325,-0.7177094204888794,-0.28936893535541197,-0.14727721382477374,-3.2755380943342427,-3.969518424382695,-3.327775316205442,-0.08896225527676682,-0.04315356939473779,-0.3303918663692909,0.07096918091373848,0.01971134509022629,0.9437727571287479,0.10406631179532094,2.9398075324931834,1.2229033345710345,-0.19585794411102242,-0.045047938562349094,-0.06845626929732837,0.1287778538120004,3.0311474159571485,4.0210253794392115,-0.022290859663195384,0.06494626022952865,-0.005584416734447567,0.14928078559061186,0.023519572282169943,-0.005618935291321764,1.5039425369677453,0.21297811712505918,-0.04578598624799185,0.14013389732118858,0.010586466655313126,-0.1521935663985258,-0.04406831698883308,-0.06940490925720413,0.7515124826901488,0.19635426739614614,1.5734992058620119,1.9656817899821328,-0.07012590484916678,-0.18942331323905526,0.016947618827406738,0.06163660741578973,-0.9534667584369089,-0.07161123712659334,-0.9610477820536216,0.009796676050271442,0.2951753677845547,0.33480257075417963,0.9340272432067657,-0.4064381659654861,0.4250141624354768,1.1747988349072869,1.0421912596821858,0.012571887031506261,-1.3573572716225815,0.8270715118757662],[0.10073477452656372,0.10069397212805414,0.11211071882969366,0.467682727647872,0.5585585577962032,0.2142023814181925,0.12076124681706729,0.314039276842964,0.217314156847799,0.248207337395836,0.11352733330343914,-0.04606285439186075,0.20173312231887655,-0.11616845283621616,0.1343600467921492,0.25471990800145483,-0.20891161467570124,0.18926110766381127,-0.07546515861012482,0.013531885958659201,0.1592963653667009,-0.13567657734671934,0.11489854276371769,0.17597389747064973,-0.051837670715222384,-0.16787795437463088,-0.002423157640971829,0.42673792329429827,-0.18632490708917154,0.15484479651647087,0.10441591269223105,0.19886127958040362,0.04757693443512706,0.1710955953493713,0.08369214744850975,0.08638071955741117,0.141322209418889,0.19553020952722291,-0.10351959021566987,-0.1271164156615276,-0.023702648932379233,-0.08065638445552903,-0.07494528873383345,0.03953533913294516,0.09711787822102197,0.23700680252616513,0.14052373934380846,-0.18165988767162222,0.14510216553368335,0.10185847648738364,-0.30663029333263314,-0.15284791918206003,0.12053661810428819,-0.13350510058839854,-0.25742043721328167,-0.24727280482029346,-0.4272787355185561,-0.12990829008682803,-0.20404881637589595,-0.5314280311237966,-0.2998757420975962,-0.3880073496029416,-0.23039691880138768,-0.4421208007431073],[0.3109897772602025,0.18308802428337506,0.18793904006702472,0.3159299089572296,0.38725427139226715,0.1274743354567514,0.046957541740395334,0.2507245904506041,0.26093381799799326,0.025271343195288582,-0.22694875355594876,-0.1968120018394614,0.25542713430861264,0.017777306248084393,0.2450342834254682,-0.0710269916797927,-0.08083603204918607,0.14281912522898416,0.025977426501074978,0.06729221304870042,-0.09267271158970254,0.16398573275610456,-0.18749802098875704,-0.0480677764748485,0.17396494853621708,0.07573053646877703,0.2934821316182323,0.37115386581059984,-0.14678795625537228,-0.1619074708670155,0.031379053823739234,0.028484339005268478,0.15358596458191248,-0.021720975167817708,-0.040304476959880535,-0.3692753666789133,0.05897531964230762,0.16906157836089708,-0.1464063168900931,-0.19071279477148748,0.06460630071486569,-0.18692005913233328,0.02982322365451434,0.19914176892038843,0.02623404607146236,0.21983742940901546,-0.03460413215389685,-0.08653717841536182,-0.15982482864164607,0.07794548920746125,-0.2002285265513265,0.15139568929553893,-0.09427005265528764,-0.15784421965345033,-0.06652742929320735,-0.16582868787141483,-0.19286213832573518,-0.00532674181328007,-0.31807587794816855,-0.4349713197288433,-0.2876808171127217,-0.26481810093196123,-0.34621480124491805,-0.06721774373749966],[0.02969640682952235,-3.521297413914371,0.10835525502729798,0.0632281726590198,-0.5791317675075651,0.4928499106890221,-1.1144874044972046,-0.37075083529385366,-1.7975536566827555,-0.7862346686046405,-4.063069766961995,-3.8317300467864235,-3.036771397709959,0.023539842181047852,0.11019248018761904,0.06364210955307192,1.8828529149708255,0.06978575953318239,3.763159932198016,0.11065449363256302,2.972419175898278,2.0877379609615363,0.04626805350738322,0.16792455204188395,0.15346117133099285,1.0292075696944463,3.4599086223111892,4.821582015154751,-0.09309140731151562,-0.03590612627095027,0.06744444514042958,-0.18204344462377026,-0.0642853221208009,0.03903074587827185,3.921865717599759,0.9433155344139947,-0.14832411085654879,0.07915877755094175,0.08330571764274558,0.058735379153920686,1.6013608698031145,-0.06516085231720475,1.3656013555907904,-0.04227373339517912,3.722174664360609,1.7975392913266095,-0.03521343350323808,0.047923969511217995,-1.6784934717483078,0.11969196748754551,-4.007625189738566,-0.12394794837630858,-3.66986145883256,-0.0237152294004802,0.08671260338956738,0.04578853560188479,-0.2675835980711675,-1.5379893438408152,-0.08590583047469749,-0.394617119979876,-0.07062317664684781,-0.5915590421520913,-1.9007416313313625,-0.06000958768951871],[-0.9818294698503228,-0.27589388002431303,-0.6984154067403495,-1.068743150457648,-1.2660278788055632,-0.5886440387575653,-0.5674487460731616,-0.8241340015225616,-0.16657241070983567,-0.1209356382767107,-3.1038798481127112,-4.49590531240258,-3.460423537617249,-0.34849302174374475,-0.2234022027068033,-0.10101665499127704,-0.14330872000143785,0.12823993304245634,-0.08449162812197361,-0.09210029788571648,3.140652157297452,0.15234032579514964,-0.11501059937627307,-0.08713723637295434,0.08278660391998632,0.07365244158781636,2.7244822481132616,4.258194059634825,-0.18080092164609907,0.19256551415720463,0.11731967192185627,-0.12623972222327334,0.022786801198993706,0.09473120168781346,0.5686148111476657,0.35690926277735596,-0.020010038661145646,0.09820922522270595,0.1934811988736322,-0.11784767771165772,0.05636453119748409,-0.14516204271704575,0.46200769403927117,-0.058430269782076744,0.5247932696123911,0.39686673608862755,0.19955132764733385,0.01040179553211304,0.012948133974894234,0.1944171055683541,-0.3936188317250719,-0.19424400335097483,-0.3608764705002374,0.1195752250138756,0.19748324031129408,0.2740054488822795,0.8702861518023556,-0.06907148175101357,0.6584339220885833,0.9493856059378852,1.0251069063597065,0.5951460725289599,-0.15465287073986617,0.6354631412783776],[0.19558226534137108,-0.540068755183393,0.128227074119092,-0.15825987930767804,-0.5420802508484034,0.4262269524860732,0.4500570479884399,-0.4674707405080812,-1.6391827994663684,-1.345878344954714,-0.854241094322015,-1.6874140617457039,-1.2378415048042875,0.18868217815435248,0.19581507125680772,0.01535198674364566,1.6348517875616146,-0.15691586394963145,0.41526056673853046,0.03963960191874999,1.4263270041781952,0.129009077996963,0.07059644226578243,-0.06293741563377475,-0.18654974041006006,1.5912180467193335,-0.6577685759312227,1.8301792958714567,0.1756114957069036,-0.15589083687253835,-0.11440043281792366,0.11713972995870625,-0.12542483290152084,-0.06689501101183212,1.1312307917630353,3.7384381848126154,-0.0004000832275582178,0.2542906521163628,0.15662786830591985,-0.1358902664631713,1.3953690010855158,0.1966261938361335,1.3699135227978683,-0.0777553685344655,1.1959373291338353,1.209118753906004,0.14523954709955672,0.18389430042275773,-1.6282076760389423,-0.1543559902625243,-1.7078298966850585,-0.05880149636935661,0.288589925258476,0.0982822126347453,-0.18560496168595844,-0.11332697144767977,-0.07112619362228532,-1.1089322836800914,-0.03716599568782604,-0.07993615539679838,0.2840606183792547,-2.4469523096825108,-1.2051390352240376,0.11133324190066027],[-0.21119158978917055,-0.5976370569865959,-0.16562762086835284,-0.16826023506955345,-0.734570139824465,-0.009187641766311656,0.0616473038367181,-0.3236297688737164,-2.1431404981673303,-3.037907634808377,-1.5747764209467239,-2.2036947193771055,-1.3828516854780464,-0.06442545332893275,0.0690146223821,-0.06484188610395626,2.228831929276931,0.05553230675291232,0.7166400387124493,-0.10718324729053591,1.111505418737298,0.5112808378439206,0.07269863209042482,-0.10838361406151416,-0.11059705273572158,3.18153558913914,-1.12817481045667,3.1296722781769706,-0.13739695039072475,0.004543488324247308,-0.09100040577296574,-0.10025241421457363,-0.05016457615187761,0.05372045096092182,-0.005501479983619349,4.3550619094245455,0.06657445060019712,0.9416411377502497,0.1583903004759578,0.041241580996103616,2.0832540441532594,-0.13913800547516325,0.7578395185022582,-0.010051585782042155,1.7985150322962389,0.6488604945670974,0.056769792787252915,-0.031192960720322377,-2.361036264194361,-0.1163918346634905,-1.2395920867041632,0.09390829146545687,0.930320142901836,-0.0682994991782681,0.11571090934563073,0.2054820226588411,0.04298193720491581,-0.6572591988894764,-0.605582042657487,-0.03300245256099441,0.20560535835427832,-2.347678709446004,-0.8400792412784652,0.20086442861083084],[0.5245339377660566,-0.16186211202974798,0.24900141443729035,0.5996191025379455,0.9661500209486283,0.44856553897797175,-0.6887052479376772,0.6517948573029311,-0.030429998574190462,0.915696736087542,-1.3290895137910572,-3.164693171378101,-3.4570342617804504,-0.048347953254138286,-0.0020657042644012715,0.18908903877230646,0.15889693646446895,-0.005563729242087673,0.33911808211170924,-0.07137552077524267,3.0404682056711083,0.48115740775821836,-0.1197044789554175,-0.1810915020006089,-0.12165557711673439,-0.8115724785263402,1.6468347897903286,2.8883860855947736,-0.03539994484349318,-0.035453286909466086,-0.035170106588383654,0.15594401989272777,0.11297740577543508,0.05097354437823409,3.588503472453278,0.24216155630027147,0.14900333020324752,-0.883885820030471,0.1475725372891149,-0.057183042662009076,0.28718009120897936,-0.023942245001252888,1.9700848580188608,0.08779211825511535,3.347058338602278,1.7579422004869751,0.11530875243635352,-0.07307566015278955,-0.18049942876199754,0.06935580934332486,-3.677460496485014,-0.007760377812811192,-3.0563518746761846,-0.2727535954100467,-0.19258743690653665,0.018861793791841004,-0.1792571629272461,-1.9872036932235506,0.6809610697281608,-0.4316482078593607,-0.5150097959504916,-0.4605640465413397,-1.7611332123723669,-0.4042951937556306],[0.26343385374392503,-1.0086292460340154,0.05479372925125335,0.5761340465629644,0.18143719092996943,-0.13866028005360007,-0.7033032504052127,0.1518787886794362,-0.06672368864508318,0.6492251589453859,-2.2524649068771145,-2.450013584206439,0.2868345566092317,0.23578697489432962,-0.026887697360322645,0.2623143382339227,0.04404110126695513,-0.1086871318781248,1.4244401015823318,0.12938288773741802,0.09018342272234633,0.760312213964327,0.18721475012101302,-0.12818696004186547,-0.09397072470827786,-0.4565755536881499,1.1773327327536507,2.4127584981148438,0.012547959289027688,0.05751628186503038,-0.022682849543774086,0.014601286039690908,-0.08357668788367843,-0.00010706107112348762,2.2545851219316964,1.167282308653,-0.03122601257190674,-0.0833915485800901,0.04213840708883049,0.18871190842715935,-0.014631267969665409,0.19156722631137085,0.8403013409093368,-0.0002895921393819556,2.6403568014481498,0.5320893453276839,-0.14685968388529905,0.11162743206854836,-0.1182623679094386,-0.20963239157300947,-2.3536328147237198,-0.0755129605219639,-1.53306761760431,-0.14892581360801768,-0.04911958048833009,-0.23235255009262987,-0.24581089053690455,-0.9684159405245775,-0.17915308761410867,-0.22235382306016568,-0.19065006349713953,-1.3873660868596596,-1.1030703066014929,0.03254333547500727],[0.18923085540837833,-1.2146833053259969,0.06447174281685444,0.22836447807240584,0.1820393908859054,-0.09781117994399985,-0.7302807213320552,-0.0883151492413025,-0.19400381610914405,-0.051367892179962925,-1.8978364177808444,-2.4562793652276005,-0.7683508464682106,0.030797748055491795,-0.06980910711670894,0.08954922284886278,0.14845897585606305,-0.13539859899122578,1.5648192466723443,-0.10465409713181356,1.0520316408348447,0.9732897646289189,-0.020357420580073254,0.15325350990584863,0.12656866838089764,0.19432813548166966,1.5933260323178289,3.203885172522626,-0.1174042177729894,-0.1700015675165652,0.045524752182871525,-0.1871246096206484,0.1500575757017953,-0.004691192068484729,0.40233422360839444,0.41378175854393356,-0.0505438529226086,0.2951277907127369,-0.16690352218940446,-0.1697134903661282,0.060457826028858484,0.12735265643844418,0.18881068150489047,0.09226889467928928,1.003296537718832,0.99237726330613,0.06797574076083557,-0.13072395871120096,-0.4132436356812353,0.1111391914666738,-0.8681099962487416,0.0029530158359717673,-0.8188503398643688,-0.00955870601669103,0.14243773554767802,0.08547646310511277,-0.1791144168352158,-0.2634067180354779,-0.5322025497707084,-0.1492893676649758,0.04148818732364357,-0.1453855401322773,-1.2101893688095826,0.21221955336851672],[0.4293383427262774,-0.03481356781848027,0.13765367125199016,0.2559913398595689,0.6750007916825407,0.3442547264331222,-0.14925815099983322,0.2262514365956506,-1.6327383345144737,-0.5498637424928677,-0.9096991192657422,-1.868616770399768,-2.1084076329275026,0.11552396267950045,0.21854896600813042,0.25732044631738005,1.8049851662355108,0.1855869557983006,0.18440824683010185,0.14780434840505824,2.0098543363247154,0.4875355485010747,-0.005104082008355271,-0.05304715705578353,0.1464827551326517,0.6331640893661931,-0.8687655333903608,1.8582369631201159,0.12413256045805865,0.08444774739042621,0.12263689784383491,0.1446134744452544,0.14854039952916231,-0.09079791207919126,3.3356399902639895,6.39392423610213,-0.10226589015504342,-0.9419646933711603,-0.0530440905414718,0.11814404644562643,1.020039875146901,-0.09906211690731404,1.869371325674384,0.06154014436741234,0.6037454730612868,1.1065257016168122,0.1961774266607192,-0.19275073584968905,-1.0859964747937774,-0.11092741043158234,-2.4510479583073335,0.17021787651161413,0.9614408030100273,-0.09156091491909187,-0.12463455265278105,-0.1947575365600657,-0.29951895234100495,-1.7615502006601125,0.9190451270068333,-0.47234946980766446,-0.5382269524404324,-3.9340636177825936,-1.1178793099957787,-0.16740465934839868],[0.272643232216117,-0.2170737075825968,0.2400549466929095,0.28990624823263017,0.6186650786857604,0.08765351241917024,-0.34400568102834544,0.4006122572886481,0.07831685609909353,0.23624754752764618,-1.1407270915689984,-1.2553821987709912,-0.3343904443161582,-0.11203358566420242,0.22568997444059255,0.15506689817133348,0.1842885654104423,-0.03625328158922797,0.5974746622336915,0.17210471732467375,0.22715809429582684,0.46345812313564677,-0.07353638031932369,0.09479179653546466,-0.10520278538532644,-0.33340495086318844,0.4613514922545542,1.3802956648208307,-0.07930230260028477,0.1327223165101758,-0.0713652681079065,0.1256733084898996,0.06413616294652191,0.0021853461921124695,0.9575740204774067,0.6497214688617494,-0.12919994778314126,-0.14996176861574123,-0.09247503196156792,-0.03519732266211975,0.21146853267946242,0.10339200695335665,0.18261416249809162,0.16762048577196015,1.3390843658660052,0.44818041181716783,0.035365627037745206,0.07591429178352105,-0.051684765666849986,-0.2617872366251522,-1.180644682556952,0.008440891346434387,-0.7297133835007727,0.02013726811714083,-0.03438782692514744,-0.11968595346583681,-0.34162665230919526,-0.5979347077639272,0.09802438007809648,-0.33334326142456866,-0.24222234754880367,-0.8705889439295684,-0.6055278364178261,-0.053789519982282506],[0.26612624285460296,-1.6404256902861887,0.1630652217520075,0.46388726280592474,0.8602934242849206,0.28431250635383837,-1.111408768153354,0.6092409072046248,-0.2398390493211083,1.4739249647065138,-1.7876202277287057,-3.1645191386212073,-3.3240910718730206,-0.12168745227953931,0.010661272106580423,-0.07959242885777384,0.171365910397475,0.0778583814059689,1.5385966535015947,0.1282394603357348,2.8768102441378205,0.8515965208408883,-0.15663874892055907,-0.004956642116242527,0.04836143311599503,-1.0786846322549806,1.2294722668646443,2.825584227748122,-0.11405937556843071,0.09499958577559331,0.19424631619144,0.011922344734390938,0.19016630862165002,0.07743228606212016,4.136411836226605,1.8280216018234368,-0.1478707312669755,-0.954135179620689,-0.1897146957293769,-0.021100813056612988,0.2388586968147147,-0.00042341341325169424,0.528253094722552,0.1110751965539124,3.581284800785493,1.862424231621916,-0.02358261978948803,0.01390642141269377,-0.2370182043914984,0.003797181368573339,-4.250972434867775,0.019191884289856548,-3.4286958515725314,-0.047711447962909465,-0.11340328174009859,0.09445050316171097,-0.3492148007456277,-0.7541818725392808,0.7725341767084322,-0.1897102668668743,-0.3971680163669704,-1.0527650845964258,-2.3866101001361564,-0.37025894953106003],[-0.4709992343308049,-0.8913398558004428,-0.23406910587131197,-0.5320087590663021,-0.7313631460087002,-0.4565848990384398,-0.6144186580707752,-0.3545532369394849,-0.20838212367453218,-0.061515742607153756,-1.3072395525229716,-2.77734636503942,-2.2219643549185286,-0.3130052081684443,-0.25138155492554803,-0.1416521888728778,0.05750519251454341,0.12305575820687481,0.619557802560241,0.06579291112450897,2.3951250417339973,0.3111902822191791,0.10818404352918382,0.07230803754113702,-0.09576610193012575,0.05708549186493049,0.945496018417726,2.5253563277820175,-0.19418004277373743,-0.028138493469724773,0.061724077587831494,0.1644395203580582,0.18671227421430664,-0.1988245503099358,3.544891182192389,0.08456950894314098,-0.039426948324440936,-0.0024571332520933902,0.011795925244346694,0.12670270101070696,0.08221237514379465,-0.1563607785281926,2.077925191726828,-0.12001567899355435,2.7561734814145846,2.0428330207527243,-0.022562509716576612,-0.026490144219694756,0.10058735738047035,0.2769251962932893,-3.3471971453893374,-0.08360737245717278,-2.1018651118962435,0.16467213634043495,0.05822191983164579,-0.07316719954386337,0.634678027109855,-1.9746757399052655,0.22118366936547662,0.7869014595968369,0.7822761579817046,-0.18741269882665412,-1.765725581138441,0.6781365519789794],[0.2549263401979163,-0.08091226699778682,0.26143841147997576,0.6184971941198462,0.6070864764589057,0.3406372050788257,-0.09377045120814956,0.4133462736144767,-0.054638039691996425,0.09132971615870614,-0.17790487998636384,-1.3067474889025874,-1.2210298134530344,0.0439401944096417,-0.05253130155005348,0.22819748293474582,0.16167541256109483,-0.009606275047960272,0.3425804296846831,0.04382470579761141,1.1485715413046922,0.43731082392345055,0.1817210102021603,0.18756805755777822,-0.015370825533609439,-0.2225903004260564,0.1615945195446288,1.4077697226344836,-0.14931287764568185,-0.014676038200535674,0.1059245439334987,-0.003216443791383139,-0.08059156206262817,0.09457409169823583,1.6270316789881103,-0.11833092826318543,0.00312053642218571,0.04788363874641054,-0.04213463360341274,0.10122933057826283,0.23624396180634988,0.19837619699265846,0.9047695875608704,0.004031448251229641,1.777132140172971,1.2568925174255012,0.18633120526428748,-0.07289963082457218,-0.2689990691294481,-0.07036093472670245,-1.8074048411322738,-0.056403815609106456,-1.750543017655585,-0.2450631072727171,-0.13491540816761924,0.015064225542432228,-0.44846709580949234,-1.141012785839058,-0.27361662583942786,-0.3688376237069326,-0.7296063359098435,-0.7090961323717351,-1.5333723945075795,-0.5136998544856998],[0.513661533452338,0.3335098972167362,0.4111194161082331,0.31765373122537377,0.5497499809760795,0.35293206922936404,0.31870123645226195,0.35446451329645834,-0.1447435209425128,-0.0810863936590742,0.1405076926293344,0.47876335062576025,0.13977976251468208,-0.09142703706067873,-0.0333532817662721,-0.04503119693510206,0.1613770678186603,-0.004184539038661228,-0.04692706580289423,0.1310196883490085,-0.23570863756320234,0.06251345443117512,-0.19660547402069276,-0.19214041597232312,0.023525693176326884,0.2351649783525309,0.2428787432499133,-0.31737392477254756,-0.13408126555166594,0.13020629170347048,-0.19827749090210212,0.061520077322668676,-0.1511697658286238,-0.17915305356258016,0.11298576640428896,0.1349108525390319,0.04162580853891118,0.011025235268982152,-0.03392341461391063,0.08507548441703322,-0.11963793025955098,0.04811967440207726,0.14027334555983767,0.01025019904041971,0.2586723461448321,0.17907075884275822,0.06483040316195288,-0.05585252427878781,-0.30881960162902355,-0.25675495677442445,-0.29375668055429865,-0.19290361705581152,-0.17513082267913446,0.0763560475181429,-0.12699145849478483,-0.09312149802111555,-0.2933405798196478,-0.3352972957153886,-0.4137811454566822,-0.3319772702198407,-0.48322970403380117,-0.4869391858836479,-0.14445708655165027,-0.440883077332693],[0.3694148123669695,0.46515288420513745,0.1447684228343396,0.3879797473828011,0.0967563636095287,0.8145225098529966,0.004205520588522826,0.05083798191238032,-1.1274731910164801,-0.20000099209889846,-1.5147035461742853,-3.50569800800124,-2.9080268559098035,0.07592721189834828,-0.10117127426616745,0.10392999594023519,1.0827875168489123,-0.19267049340967093,-0.1966573070104685,0.16599683048828234,2.8715604557074896,0.5123268749098375,0.10685690107092632,0.029518509089573458,-0.1824929817458797,0.21793090246054114,-1.0117337269903053,4.256265363670582,0.1820048844140481,-0.0376315682809964,0.034706410127101156,0.11217557657322857,0.1634262960057848,-0.02942883111199529,2.9596872839676944,3.219399465776336,-0.1530258244954804,-1.2012870300551597,0.03528092960788784,-0.1526679647580286,1.1210600187240198,0.018120905003032817,2.8858388637753136,-0.08551771571112098,3.8783327287744336,0.7076545070871838,-0.1859316586904054,0.06875416130746792,-1.1907010829800013,-0.02052267413658788,-4.3428597092710435,-0.14682115743429522,0.9647287371744442,-0.10643494226640518,-0.0940324841281929,0.0714410865422147,-0.44303163333730966,-3.2131780000564505,0.9144058962049543,-0.5813124848471323,-0.8880384864132234,-4.557729242499025,-0.9184741137045705,-0.5111024178798858],[0.2363497964164268,0.2034042219976252,0.22427724205663008,0.32044624064245925,0.400195098289158,0.44533713683643006,0.07659301146002777,0.19416442125208583,0.15862888939279432,0.17490458047941276,-0.28367479903245274,-0.5109665263427742,-0.521984360582421,-0.02341632248728665,0.2538176490485864,-0.09285323469586278,0.24176846025343593,-0.15428038665002086,0.016202080701910655,-0.10929444468536476,0.7119684214999266,0.23800242358953025,0.007165420483850771,-0.0845522174994966,-0.055497464321872775,-0.01356106218931832,0.08787504725270795,0.6381647227828747,-0.07766558182551081,0.004128705077774963,-0.06571431650403312,0.18992077055127948,-0.0792560852273005,-0.04833949382859962,0.1624216422137439,0.19914061087045778,-0.16377481935334348,0.16030328316238684,0.09335677112266916,-0.02745419271509658,-0.00286663197246813,-0.08859768525712007,0.2894091735024474,0.030741933106933406,0.609468756988514,0.5786600436180507,-0.1253443166600799,0.07660570329971483,-0.013589679632073377,-0.04782602930824879,-0.40031545647574795,0.0008378750158724024,-0.5283404639125757,-0.19771367990019237,-0.15485788779342888,-0.11658483517709246,-0.25459633183211655,-0.20321469262447467,-0.45617376913223384,-0.5789144218150186,-0.7021894886899435,-0.7126202949932199,-0.7741885728287539,-0.3667736733629726],[0.4817534037020253,-0.04121387119016597,0.13454898058587358,0.3611544872166762,0.383469564442493,0.08243713007372332,-0.20559496689497703,0.19375562941945765,-0.09967313241805016,0.016904832074250205,-1.0304783400179334,-1.1360858858864407,-0.4461736457932739,0.07350977652843589,-0.04436455225201384,0.0007258018564886292,-0.024559761853758598,-0.1217735633856763,0.1841502825300645,0.02178027543806005,0.8138450652519631,0.4191529203135949,-0.02422933821857648,0.0945250289388001,-0.003141816910901596,-0.1891033519241893,0.8046798392843725,1.2817130297709431,0.006634628349173249,-0.13235278321884794,0.08628890762056918,-0.02929174325629519,0.09403686987211335,0.19252122974196156,1.0664949542918913,0.22139015912157192,-0.07095333445537735,0.08613830265059878,-0.04976813375516603,-0.06375743989591182,-0.11607596215588342,-0.14853932390104063,0.27110838801066184,-0.17977237037698235,1.4512048892074307,0.3936413998306703,-0.07151066607030795,0.19945902654941883,-0.08811259626364377,-0.0502094044192076,-1.376572649364729,-0.11304802097524336,-1.0920206552154603,0.06881793600761331,-0.28281095648554005,-0.06634163259004076,-0.5323303565081376,-0.7767679705157939,-0.354205799619331,-0.6471056974362318,-0.5848881222396927,-0.5794329628879166,-0.8676114834218355,-0.3658148891696611],[0.3203430287417133,-0.17288660226685929,0.005591353455606026,0.1089268012962211,-0.05780843641839046,0.21085001525481364,0.3880701154496734,-0.05807594253441681,-0.6989945791973337,-0.6376902247649864,-0.7746570299833324,-1.770306002700378,-0.7684074030190301,-0.13272924424007526,-0.11080338963563904,-0.1026018326090514,0.6143779746029713,-0.17235787694305166,-0.00676580785321315,-0.08437685569176807,1.0546869061496489,0.3039879674776744,-0.05496358992446923,0.03270365296849409,0.14572997931994236,0.9319148270260817,-1.4672906943400557,2.2186740189316563,-0.06198194627768078,0.09765746661752334,0.18014571478134028,-0.14089608545969404,0.19043444129992954,-0.14626308541678618,1.8726256665217424,3.2020663871849253,0.018102047532330967,0.2582076934865111,0.14484879278503365,0.11905563302987598,0.8005347573357253,-0.05745445426869544,1.5938292725530374,-0.0591821591070624,2.80460838116258,1.303450540926986,0.024596512839978046,0.044007908178929966,-0.5940251965791601,-0.10014878141752237,-2.46307492935296,-0.060861007777721465,0.49615790251405667,-0.16406051445343373,0.11541680753468891,-0.2277264863257113,-0.07511942331150366,-1.6876598721292373,-0.26259938363833296,-0.3300977292205815,-0.36824446814456835,-2.8540595408296197,-1.2337180638404839,-0.14133843131280102],[0.3265785080641269,-0.10322592495222263,0.030377554786877363,0.05658279863444368,0.12057678717085618,0.25611116512381327,0.06612127826029879,0.27320379494434377,-0.07337922754430933,-0.2206767530396177,-0.6499795135208671,-1.1334194972661602,-0.5390036061089161,0.05881215692033418,0.09001798083591458,0.145797387947169,0.25715164851878924,-0.141701335810831,0.12700333750498646,-0.19503422956165314,0.8667598037002477,0.2107619709718732,0.19465765118910783,0.07550123933557923,-0.14118187699900223,-0.020523563909823746,0.19607071152930808,1.5334121889338501,-0.05992851945991165,0.007360218801214569,-0.06178354315244894,-0.014341491964871611,-0.03584650468574857,0.0038441401109599593,0.14589415855179036,0.7084828527586691,-0.14286323947618076,0.13779059028552784,-0.11959688591367126,0.10096696086263635,0.10521694544902054,-0.1595183207496934,0.31069461075132954,0.19070402714381068,0.6799865246405846,0.44067936111365136,-0.03326809384432758,0.04425067459681581,-0.3418476763809793,-0.038923500076044455,-0.7782646087997512,0.021623564345841118,-0.19975016499462436,0.08107254820328647,-0.08280303530407157,0.14528517934511886,-0.2695346134028259,-0.44423181614960994,-0.1542211149416268,-0.10826433756588265,-0.17195171570854342,-0.8270567662622927,-0.9043967594108522,-0.005138925576370457],[0.5638700617684695,-0.6034673008938406,0.40457592539693177,0.39545255970649107,0.6231536682060601,0.5001805756498032,-0.4663324587011443,0.5740101597928129,-0.16284052963755674,0.5294008475211212,-0.5812044409149542,-2.770551598316276,-2.680299518908056,0.14004177019381886,0.2777567563698128,-0.0030805276770784944,0.5087810307226036,-0.10307842033515852,0.5266247430271462,0.19370375110775895,2.22404519578153,0.5922224008746918,0.1154098055113349,-0.05253779783142773,-0.12823015901946605,-0.3534914391577617,0.6145543625974565,2.9805580993122156,-0.16805324386232884,0.06471856880660909,-0.15892603272046957,0.13962833994624008,0.09362697511253604,0.1269228014981389,4.261194231169235,0.37959774317203193,0.06267436062911608,-0.75448161047304,0.011380833526247969,0.07709293196899453,0.37714372499330673,0.10954118043647193,1.9399995718824143,0.07726479403148401,3.4221582657890806,1.827157548664602,0.19490496457457102,0.1672388661822763,-0.6046533161346116,-0.0972439321822469,-4.077157417858909,0.16553041949436303,-2.906467960598093,-0.22537326984424882,-0.2916658076713472,0.019060741854385607,-0.28175868278715793,-2.0772014652869997,0.4966278714758544,-0.39510318903816655,-0.4976261634815693,-1.300480322261434,-2.060995278634644,-0.23691208943961456],[0.33532822513262445,-0.012320907912798834,0.19754812222916449,0.2522807279543815,0.5254293417922831,0.2911719936387895,0.2876736869527062,0.1930541227604388,-0.05820562276287546,-0.01318316026179318,-0.26172177376295214,-0.6716596285675197,-0.16131520037452451,-0.06609851562986514,0.2496785857164614,0.12922679033036774,0.06919089552166408,0.15496272668610472,0.2783024350874881,-0.14114750871517467,0.3722299179569598,-0.02254324522229773,0.07882844283417978,-0.13228327748069602,-0.10682000096473204,0.05903808920395442,0.1885553909398636,0.9131703637296861,0.025401294185481677,0.06663762907043075,0.09390257022145365,0.1543724876875266,0.15598958770330063,-0.1869604521159218,0.3223181271822781,0.23666638210640342,0.16320983616612256,-0.07901156577646926,0.0281531764361648,-0.05005710371392588,0.056798468921952706,0.1389652399924997,0.19363750225871454,0.1348704773194795,0.8148116864413473,0.355883584809955,0.013917542408150407,0.09449965546583228,-0.1445714581489797,-0.24373008395238813,-0.7061375020511638,-0.01504898172219199,-0.5729857490657727,-0.08981729066116766,0.11311999827136264,-0.23280794854965184,-0.16058349624639842,-0.27061302656539427,-0.4871535222487154,-0.36584572289504913,-0.2672713481887491,-0.43486214868990547,-0.6846095638400465,-0.2891106884979446],[0.1969141096538406,0.00003683080677291114,0.3241725869376252,0.272840916731248,0.34126066114736586,0.2857499256960638,0.29204843487258053,0.31171780670590077,-0.0982138008308617,0.04824543434893641,-0.3267887129506363,-0.5166692872036402,0.04537855910583958,0.211505846859624,0.1373630461472484,0.054398619953846886,-0.005932667148180548,-0.09637781858106048,0.26294291096869715,-0.06615394570488348,0.06385613837577582,0.03424577508339337,-0.0415859633444165,0.09294533310284897,-0.12078457494793665,0.12900524258816062,0.14885070297351516,0.6239049488536575,-0.0068028329705183965,-0.025960874678806978,-0.08871494928519441,0.09565322022805517,-0.13171201785677172,-0.02336289531307853,-0.030819875529965443,0.24766592997668355,-0.1753163462332018,0.10427870481023348,-0.10684803953011662,0.027788385221386935,0.11467892788432273,0.16310231488433785,0.0742852691266029,0.11743155806447819,0.8461859934825329,0.6524243937767318,0.028777966274951078,-0.15084649758883534,-0.2458112390971116,-0.19935826616960126,-0.2711460880639494,-0.11291410747326491,-0.26642347152217893,-0.09622230863680976,-0.0015911082832327532,-0.185638336751723,-0.1872132644363273,-0.3208107348846848,-0.30951333044482615,-0.3966433069943123,-0.34293026172132657,-0.5980337785923093,-0.5754579965446566,-0.46811042300833117],[0.20660910604271068,0.04631813603561396,0.19861164482468957,0.4337878906988848,0.5549521790721008,0.2583173239201079,0.1132455963571142,0.2597637586680895,0.2046976802428544,0.1935766331527718,0.031069507437106,0.2577307624943192,0.21106964024394653,0.17575739797819198,-0.016341665002420847,0.07279177667899228,-0.04592652723652682,-0.14691798196056488,0.034883662083110736,-0.029995108276978488,0.09421117508137399,-0.17760804763753893,-0.154272117645899,-0.024008874904935584,-0.03631110172416693,0.07299676480170354,0.22311810315052127,0.13785739490656174,0.1629436166299419,-0.03889267047221007,-0.16271225382795054,-0.05218440546110745,-0.16899572758777143,0.18473771852774512,0.1088740300638024,-0.05747445372421134,0.07666724818546411,-0.1661172336498752,0.13783518649720428,0.011267403027917233,0.07669790290032938,-0.17057595225498928,0.12136132686409598,0.0638631247120145,-0.12873036544000435,0.22010298293082764,0.15673801081200944,0.124247344753048,-0.19556331192229423,-0.1451095155754988,-0.024544653917912662,0.19722822173448934,0.11642336578772745,-0.09613646093423733,-0.0629450902413824,-0.10290596904889046,-0.4114174447148474,-0.22230389269218143,-0.28453338588041305,-0.4147344012656249,-0.5027213055262975,-0.39688714422688554,-0.3984007053078737,-0.29388975174248916],[0.37043699612367503,0.05937543445584561,0.29185317048225284,0.3492126267698873,0.47444600353097066,0.15583654779965148,-0.11477277858198358,0.27305271125279207,-0.062011725921492754,-0.014188049362740214,-0.5549740522629548,-0.5558652681021929,-0.04242418082410982,-0.09825812225861845,-0.037330782958413584,0.22198303059093233,-0.023760036097350654,0.16284730151566507,-0.0015934349753450683,-0.023725655911396526,0.22227303707687837,0.23573771094073068,-0.07194800884312863,0.04106431111700576,0.14658654059166942,-0.007684525385858646,0.3531286345219862,0.6962895507365342,-0.15993480113800207,-0.1589858191382236,-0.1504027782437289,-0.0973739241279179,-0.029065693899202216,0.07957785293376202,0.1846567416253151,0.0037979884253985133,-0.14691131985176434,0.12052178201690594,0.09361296257667312,0.032131284372536845,-0.028203301507570253,-0.028111524401817523,0.0731296611488238,-0.04912469370704589,0.5446508046075023,0.38271780459781685,0.02141592054645286,0.18855642364542685,-0.06894930453208493,0.028828805572922837,-0.2863009137229743,0.18487604204819102,-0.23645331694499958,0.022200783413117545,0.02579259749724386,-0.07333241842785086,-0.40172312726042775,-0.3188787388933561,-0.34008305414944406,-0.4959924327553614,-0.36771206990923216,-0.49849556108538035,-0.765142768081753,-0.22375127826244748],[-1.3998128776800298,-1.2804631006707587,-1.284018926380453,-1.7991223522976718,-2.2451792158630473,-1.101692149693914,-1.7670167063476105,-1.505968647206928,-0.4018254655703283,-0.24938370401857907,-2.901004822731437,-4.486695948586895,-3.2711814706790956,-0.5279477250794175,-0.38984088769489117,-0.3713607425792059,0.04521669597723865,0.0035929933927017765,0.4733140946662204,0.19634786094298828,2.90730554895652,1.2160502513459752,-0.07703908630643337,0.03816183830996475,0.07287637728085172,-0.12563874765290267,2.873547905130111,4.145547792667588,0.060079109154948185,-0.1641411727218981,0.04842647676436504,-0.11751349874455999,0.024466179137054234,0.0645090729092449,1.8508991092220939,0.2645710129452521,-0.007943340496064877,-0.1330762142875953,-0.07721338990884341,0.12938486074521544,0.07438549487351999,-0.09316132150854069,0.9922215522524565,-0.09913095947160029,1.9819064445564283,1.7630883905016297,-0.14058776243263643,-0.09027532200655389,0.2191845137671654,0.23283703814421872,-1.481857022032107,0.03246962818585378,-0.49682106505099166,0.2075533436000981,0.4963225491477657,0.2478155910405191,1.468745180983272,-0.12674854783556094,1.0987170712750185,2.087854125321591,2.1456233736277626,0.3734281692433298,-0.8392875577000081,1.4902596224735232],[0.43087928844230083,-0.37670658623837266,0.2597363344827826,0.20876327488406232,-0.07969620418591841,